
\data\
ngram 1=6436
ngram 2=27194
ngram 3=2680

\1-grams:
-4.318119	15	-0.08453633
-4.318119	1600	-0.08453633
-4.318119	1865	-0.08453634
-4.318119	1947	-0.08453634
-4.318119	1951	-0.08453634
-4.318119	1960	-0.08453634
-4.318119	1974	-0.08453633
-4.318119	1977	-0.08453634
-4.318119	1979	-0.08453634
-4.318119	1992	-0.08453634
-4.318119	4	-0.08453633
-1.375883	</s>
-99	<s>	-0.6143568
-4.318119	A	-0.08453633
-4.318119	Aids	-0.08453633
-4.318119	B	-0.08453634
-4.318119	FIR	-0.08453633
-4.318119	HV	-0.08453633
-4.318119	JB	-0.08453634
-4.318119	UISR	-0.08453634
-4.162994	USSR	-0.08453634
-2.777114	a	-0.1040908
-2.923503	aa	-0.2520455
-4.318119	aabaadi	-0.08453634
-4.048557	aabhaari	-0.1547779
-4.318119	aachaari	-0.08453633
-4.318119	aachaarya	-0.08453633
-4.318119	aad	-0.08453633
-3.787899	aadar	-0.1182386
-4.318119	aadarniya	-0.08453634
-4.318119	aadarsh	-0.08453633
-4.048557	aadat	-0.08453634
-4.162994	aadesh	-0.08453634
-4.318119	aadh	-0.08453634
-4.318119	aadhaa	-0.08453633
-4.162994	aadhaar	-0.1946762
-4.318119	aadhe	-0.08453634
-4.162994	aadhi	-0.08453633
-4.318119	aadhikaarik	-0.08453633
-4.318119	aadhunik	-0.08453634
-4.162994	aadi	-0.08453634
-4.318119	aadivaasiyo	-0.08453634
-3.064669	aadmi	-0.1130114
-3.898959	aadmiyo	-0.08453633
-3.563383	aae	-0.2319438
-3.416116	aaegaa	-0.5396044
-4.162994	aaeà¤?	-0.08453633
-4.318119	aaeà¤?gkyaa	-0.08453634
-4.318119	aaeà¤?gunhe	-0.08453634
-3.508556	aag	-0.08453633
-4.318119	aagaah	-0.08453632
-4.318119	aagayaa	-0.08453634
-3.563383	aage	-0.08453634
-4.162994	aagreh	-0.08453634
-4.162994	aagyaa	-0.08453632
-4.162994	aahaar	-0.08453633
-4.162994	aahat	-0.08453631
-4.318119	aaine	-0.08453633
-4.048557	aaiye	-0.1547779
-2.897514	aaj	-0.1407264
-4.318119	aajaao	-0.08453634
-4.162994	aajakal	-0.08453633
-4.318119	aakaashvaanee	-0.08453633
-3.699534	aakar	-0.08453634
-4.162994	aake	-0.08453634
-4.162994	aakh	-0.08453632
-3.898959	aakhe	-0.08453634
-4.162994	aakhir	-0.08453634
-4.162994	aakhiri	-0.08453634
-3.898959	aakhirkaar	-0.08453634
-4.048557	aakho	-0.1547779
-4.318119	aakhri	-0.08453634
-4.318119	aalaap	-0.08453633
-4.318119	aalam	-0.08453634
-4.162994	aalasi	-0.1946762
-4.318119	aalingan	-0.08453633
-4.318119	aalochanaa	-0.08453634
-4.318119	aaluo	-0.08453633
-4.162994	aam	-0.08453633
-4.318119	aamadani	-0.08453634
-4.318119	aamane	-0.08453634
-4.318119	aamantran	-0.08453634
-3.787899	aamataur	-0.4066761
-4.318119	aaminikhelaa	-0.08453634
-4.318119	aamir	-0.08453634
-3.339941	aanaa	-0.1479671
-3.626145	aanand	-0.08453634
-3.699534	aanandi	-0.1226414
-4.318119	aanandvismrit	-0.08453634
-3.275155	aane	-0.1080518
-4.318119	aanekaa	-0.08453634
-4.318119	aangan	-0.08453633
-3.898959	aanganwaadi	-0.1361241
-3.787899	aao	-0.3274949
-3.787899	aaoge	-0.1253046
-2.731769	aap	-0.1563751
-4.318119	aapaatakaaleen	-0.08453634
-4.162994	aapatti	-0.08453631
-3.376361	aapkaa	-0.1055157
-3.21879	aapke	-0.1524285
-3.124168	aapki	-0.117362
-3.029097	aapko	-0.1083478
-3.246058	aapne	-0.1034734
-3.699534	aapse	-0.1361241
-3.339941	aaraam	-0.1733916
-4.162994	aarambh	-0.08453633
-4.318119	aarthik	-0.08453634
-3.787899	aas	-0.2507952
-3.626145	aasaan	-0.2574688
-3.626145	aasaani	-0.6606667
-3.898959	aasamaan	-0.1182386
-4.048557	aashaa	-0.08453634
-4.318119	aashankaa	-0.08453633
-4.318119	aashcharya	-0.08453634
-4.318119	aashcharyo	-0.08453634
-4.318119	aasheesh	-0.08453634
-3.898959	aashirwaad	-0.08453634
-4.318119	aashvaasan	-0.08453634
-4.162994	aaspaas	-0.08453633
-4.318119	aasraa	-0.08453633
-4.318119	aastreliyaa	-0.08453634
-4.318119	aasu	-0.08453633
-3.145962	aataa	-0.4098838
-4.318119	aatank	-0.08453633
-3.246058	aate	-0.3483724
-3.563383	aath	-0.1807913
-3.459882	aati	-0.4414382
-4.318119	aatmaa	-0.08453633
-4.318119	aatmahatyaa	-0.08453634
-4.318119	aatmavishwaas	-0.08453633
-4.318119	aatmik	-0.08453634
-4.318119	aaugaa	-0.08453634
-4.048557	aaungaa	-0.2926899
-4.318119	aavaam	-0.08453633
-4.318119	aavesh	-0.08453634
-3.508556	aawaaz	-0.1597579
-4.318119	aawashyak	-0.08453633
-3.064669	aayaa	-0.4682485
-4.318119	aayaat	-0.08453632
-3.21879	aaye	-0.4066761
-3.787899	aayege	-0.1253046
-4.048557	aayegi	-0.1361241
-3.145962	aayi	-0.3517037
-4.318119	aayu	-0.08453633
-4.318119	aazaad	-0.08453634
-4.162994	aazaadi	-0.08453633
-4.318119	aazamaati	-0.08453633
-3.699534	aaà¤?khe	-0.1762599
-4.318119	aaà¤?kho	-0.08453634
-4.318119	aaà¤?ksuj	-0.08453634
-4.318119	aaà¤?suo	-0.08453634
-2.951146	ab	-0.1010606
-4.318119	abandoned	-0.08453633
-2.827751	abhi	-0.2259263
-4.318119	abhilaashaao	-0.08453633
-4.162994	abhimaan	-0.08453634
-4.318119	abhimaani	-0.08453634
-4.318119	abhinay	-0.08453634
-4.318119	abhinetaa	-0.08453633
-4.318119	abhinetri	-0.08453633
-3.898959	abhiyaan	-0.08453633
-4.318119	ability	-0.08453634
-4.318119	abki	-0.08453633
-4.162994	ablaa	-0.08453634
-3.416116	about	-0.1332098
-4.162994	abse	-0.08453633
-4.318119	absolute	-0.08453634
-4.318119	ac	-0.08453633
-3.898959	accept	-0.08453633
-4.318119	accepted	-0.08453634
-4.318119	access	-0.08453634
-4.318119	accident	-0.08453632
-4.318119	according	-0.08453634
-3.699534	achaanak	-0.1762599
-4.318119	achaarya	-0.08453634
-4.318119	achchaa	-0.08453633
-2.838627	achchhaa	-0.2446222
-4.162994	achchhaai	-0.08453634
-3.08361	achchhe	-0.2570904
-4.318119	achchhepan	-0.08453634
-3.124168	achchhi	-0.3147594
-4.318119	achieving	-0.08453633
-4.318119	across	-0.08453633
-4.318119	acting	-0.08453633
-4.162994	actor	-0.08453634
-3.787899	actress	-0.1253046
-3.699534	actually	-0.08453633
-4.318119	ad	-0.08453632
-4.318119	adaa	-0.08453634
-4.162994	adbhut	-0.08453634
-4.318119	add	-0.08453634
-4.318119	addaa	-0.08453633
-4.318119	adde	-0.08453634
-4.318119	addo	-0.08453634
-4.318119	ade	-0.08453634
-3.787899	adhik	-0.1095647
-4.318119	adhikaansh	-0.08453634
-4.318119	adhikaar	-0.08453634
-4.318119	adhikaariyo	-0.08453633
-4.318119	adhiktar	-0.08453633
-4.318119	adhipati	-0.08453634
-4.318119	adhisoochanaa	-0.08453633
-3.898959	adhyaapak	-0.2305848
-4.318119	adhyakshataa	-0.08453634
-4.318119	adiyal	-0.08453633
-4.318119	admit	-0.08453634
-4.318119	adne	-0.08453634
-4.318119	ado	-0.08453633
-4.318119	adopt	-0.08453634
-4.318119	advised	-0.08453633
-4.318119	ae	-0.08453633
-4.318119	aeps	-0.08453634
-4.318119	afasar	-0.08453634
-3.787899	africa	-0.08453634
-4.162994	after	-0.08453633
-3.787899	afwaah	-0.1067114
-4.162994	afwaaho	-0.08453634
-4.318119	afwaaye	-0.08453634
-4.318119	against	-0.08453634
-4.318119	agal	-0.08453633
-4.318119	agalaa	-0.08453633
-3.145962	agar	-0.1131761
-4.318119	agayaan	-0.08453634
-4.318119	agency	-0.08453633
-4.162994	agent	-0.08453634
-3.416116	agle	-0.276363
-4.162994	agli	-0.1547779
-4.162994	aham	-0.08453634
-4.318119	ahankaar	-0.08453633
-4.318119	ahankaari	-0.08453634
-4.318119	aims	-0.08453634
-4.048557	airport	-0.08453633
-4.318119	airports	-0.08453634
-4.318119	ajanabi	-0.08453633
-4.318119	ajanabiyo	-0.08453634
-3.699534	ajeeb	-0.1132609
-4.318119	akal	-0.08453634
-3.898959	akalmand	-0.2305848
-4.318119	akelaa	-0.08453633
-4.318119	akelaapan	-0.08453634
-3.626145	akele	-0.15145
-4.318119	akeli	-0.08453633
-4.048557	akhabaar	-0.08453634
-4.318119	akhabaaro	-0.08453633
-4.318119	akhandataa	-0.08453634
-4.162994	akkhadapan	-0.08453634
-3.563383	aksar	-0.08453633
-4.318119	aksharo	-0.08453633
-4.318119	alaahbaad	-0.08453634
-4.162994	alaavaa	-0.08453634
-3.103416	alag	-0.1820029
-4.318119	alfaaz	-0.08453634
-3.306341	all	-0.1392636
-4.318119	allergy	-0.08453633
-4.162994	allow	-0.08453634
-4.162994	allowed	-0.08453633
-4.318119	allows	-0.08453634
-4.162994	almost	-0.08453633
-4.162994	alone	-0.08453634
-4.162994	already	-0.08453634
-3.508556	also	-0.08453634
-4.318119	alternative	-0.08453633
-4.318119	alvidaa	-0.08453634
-3.563383	always	-0.08453633
-4.318119	am	-0.08453633
-4.318119	amar	-0.08453634
-4.318119	amareekaa	-0.08453634
-4.318119	amazes	-0.08453634
-4.048557	ambedkar	-0.1361241
-4.318119	ambulance	-0.08453634
-3.626145	ameer	-0.1132609
-4.318119	amend	-0.08453634
-3.508556	amendment	-0.1253046
-4.318119	amendments	-0.08453633
-3.563383	america	-0.1044423
-4.162994	amit	-0.1946762
-4.162994	amitaabh	-0.1946762
-3.626145	ammaa	-0.1361241
-4.318119	among	-0.08453634
-4.318119	amount	-0.08453634
-4.318119	amreeki	-0.08453634
-3.459882	an	-0.08453634
-4.318119	anaath	-0.08453634
-4.318119	anaayaas	-0.08453633
-4.318119	anarth	-0.08453634
-2.502854	and	-0.2354526
-4.318119	andaaz	-0.08453634
-3.459882	andar	-0.1044423
-4.162994	ande	-0.08453633
-4.318119	andher	-0.08453633
-4.162994	andheraa	-0.1547779
-4.318119	andhere	-0.08453633
-4.318119	andheri	-0.08453634
-4.318119	andhkaar	-0.08453633
-4.318119	andhra	-0.08453634
-4.318119	andrew	-0.08453634
-4.318119	aneeshwarawaadi	-0.08453633
-4.048557	anek	-0.08453633
-4.318119	angaar	-0.08453634
-4.318119	angoothi	-0.08453633
-4.318119	angrejo	-0.08453634
-3.145962	angrezi	-0.1234648
-4.318119	angur	-0.08453633
-4.318119	anil	-0.08453633
-4.318119	animated	-0.08453634
-4.318119	aniwaary	-0.08453633
-4.162994	ank	-0.08453634
-4.318119	ankurit	-0.08453633
-3.699534	annt	-0.1762599
-4.318119	anpadh	-0.08453634
-4.318119	answer	-0.08453633
-4.318119	answers	-0.08453634
-4.318119	antahkaran	-0.08453633
-3.898959	antar	-0.1253046
-4.318119	antarraashtreey	-0.08453634
-4.318119	anti	-0.08453633
-4.318119	antim	-0.08453634
-4.318119	antyeshti	-0.08453633
-3.898959	anubhav	-0.2305848
-4.318119	anuchhed	-0.08453634
-4.318119	anuchit	-0.08453633
-4.318119	anukool	-0.08453634
-4.318119	anum	-0.08453634
-4.318119	anumaan	-0.08453633
-4.162994	anupasthit	-0.08453633
-4.318119	anuraag	-0.08453634
-4.318119	anurodh	-0.08453632
-4.318119	anuroopataa	-0.08453634
-4.162994	anusaar	-0.08453633
-4.162994	anuwaad	-0.08453633
-3.508556	any	-0.08453634
-4.162994	anya	-0.08453633
-4.162994	anyaay	-0.08453634
-4.318119	anyaayi	-0.08453634
-4.318119	anybody	-0.08453633
-4.318119	anyoktiyo	-0.08453634
-4.048557	anyone	-0.08453633
-4.318119	anyones	-0.08453633
-4.318119	anythings	-0.08453634
-4.318119	anyways	-0.08453634
-4.318119	apadh	-0.08453633
-4.318119	apart	-0.08453633
-4.318119	apekshaa	-0.08453634
-4.318119	aplomb	-0.08453634
-2.910314	apnaa	-0.1468608
-2.675321	apne	-0.1718704
-2.849783	apni	-0.1374762
-4.162994	app	-0.08453634
-4.318119	apparently	-0.08453633
-4.162994	appeal	-0.08453633
-4.318119	appointment	-0.08453633
-4.318119	appreciate	-0.08453632
-4.318119	approach	-0.08453634
-4.162994	apraadh	-0.08453633
-4.318119	aprail	-0.08453633
-3.898959	april	-0.08453633
-4.162994	arab	-0.08453634
-4.162994	arabi	-0.08453634
-4.318119	arae	-0.08453634
-3.416116	are	-0.1168391
-4.318119	arey	-0.08453633
-4.318119	arhar	-0.08453634
-4.162994	around	-0.08453634
-4.318119	arpan	-0.08453634
-4.318119	arse	-0.08453633
-4.318119	art	-0.08453634
-4.318119	arthatantro	-0.08453634
-4.162994	arthvyavasthaa	-0.08453634
-4.318119	artist	-0.08453633
-4.162994	arts	-0.08453633
-4.318119	aruchi	-0.08453633
-4.318119	arzi	-0.08453633
-3.306341	as	-0.2782762
-4.318119	asaamiyo	-0.08453634
-4.318119	asabhyataa	-0.08453633
-4.318119	asahy	-0.08453633
-4.318119	asal	-0.08453634
-4.318119	asambhav	-0.08453634
-4.318119	asantusht	-0.08453634
-4.162994	asar	-0.08453634
-4.318119	ashleeltaa	-0.08453634
-4.318119	ashok	-0.08453632
-4.162994	asia	-0.08453634
-4.048557	ask	-0.08453633
-4.162994	asked	-0.08453634
-4.318119	asl	-0.08453634
-3.898959	asli	-0.1253046
-4.048557	aspataal	-0.1547779
-4.162994	aspect	-0.1946762
-4.048557	assaam	-0.2926899
-4.162994	assembly	-0.08453633
-4.318119	assert	-0.08453633
-4.048557	assi	-0.08453634
-4.318119	associate	-0.08453634
-4.318119	association	-0.08453634
-4.318119	assuring	-0.08453633
-4.318119	astitw	-0.08453634
-4.318119	asurakshit	-0.08453633
-4.318119	asuvidhaaye	-0.08453633
-3.193132	at	-0.2861274
-4.048557	atal	-0.08453633
-4.318119	ateet	-0.08453634
-4.048557	ateichi	-0.08453633
-4.318119	athaarah	-0.08453634
-4.162994	atleast	-0.08453633
-4.318119	attack	-0.08453634
-4.318119	atthaavees	-0.08453633
-4.318119	attitude	-0.08453632
-4.318119	audience	-0.08453633
-4.048557	august	-0.08453634
-2.117598	aur	-0.1527323
-3.699534	aurat	-0.1182386
-4.318119	aurato	-0.08453634
-4.318119	auro	-0.08453634
-4.318119	australia	-0.08453633
-4.318119	avaak	-0.08453634
-4.162994	available	-0.08453633
-4.318119	avakaash	-0.08453634
-4.318119	avashya	-0.08453633
-4.318119	avasthaa	-0.08453634
-4.318119	avataar	-0.08453634
-4.318119	avlaa	-0.08453633
-4.162994	avsar	-0.1253046
-4.048557	award	-0.08453634
-4.318119	awe	-0.08453633
-4.318119	awestruck	-0.08453634
-4.318119	awishwasaneey	-0.08453634
-4.318119	awkward	-0.08453633
-4.318119	aww	-0.08453633
-4.318119	aà¤?de	-0.08453634
-4.162994	ba	-0.08453633
-4.318119	baabaasaaheb	-0.08453633
-4.048557	baabu	-0.08453634
-4.162994	baabuji	-0.08453633
-3.563383	baad	-0.1105954
-4.318119	baadal	-0.08453634
-4.162994	baag	-0.08453631
-4.318119	baagh	-0.08453634
-3.168907	baahar	-0.2292413
-3.699534	baaj	-0.1182386
-4.162994	baaje	-0.08453634
-4.318119	baaji	-0.08453634
-4.318119	baajpai	-0.08453634
-4.318119	baajraa	-0.08453633
-3.626145	baaki	-0.1095647
-3.699534	baal	-0.08453634
-4.318119	baalako	-0.08453634
-4.162994	baalikaa	-0.08453634
-4.318119	baalo	-0.08453633
-4.318119	baalpan	-0.08453633
-4.318119	baandhati	-0.08453633
-4.318119	baanko	-0.08453634
-4.048557	baant	-0.08453634
-3.699534	baap	-0.1010606
-4.318119	baapu	-0.08453634
-3.168907	baar	-0.1072512
-4.318119	baaraa	-0.08453633
-4.162994	baaraha	-0.08453634
-4.318119	baarahaa	-0.08453634
-3.459882	baare	-0.628482
-4.318119	baarhavi	-0.08453634
-3.508556	baari	-0.2011506
-3.306341	baarish	-0.2228032
-2.706674	baat	-0.1928073
-4.318119	baataaungi	-0.08453634
-3.898959	baatcheet	-0.08453634
-3.459882	baate	-0.09976695
-4.318119	baatli	-0.08453633
-4.048557	baato	-0.1547779
-4.162994	baavees	-0.08453634
-4.318119	baavlaa	-0.08453633
-4.162994	baawajood	-0.1946762
-4.318119	baawarchi	-0.08453633
-3.787899	baazaar	-0.08453634
-4.318119	baazaaro	-0.08453634
-4.318119	baazi	-0.08453633
-4.162994	bach	-0.08453634
-4.048557	bachaa	-0.08453633
-4.318119	bachaae	-0.08453634
-4.318119	bachaakar	-0.08453634
-4.318119	bachaao	-0.08453634
-4.318119	bachaayaa	-0.08453634
-3.508556	bachchaa	-0.1321549
-4.162994	bachchan	-0.08453632
-2.99622	bachche	-0.1593293
-4.048557	bachchi	-0.08453633
-3.508556	bachcho	-0.1271922
-4.318119	bache	-0.08453633
-4.318119	bachi	-0.08453633
-4.162994	bachpan	-0.08453633
-3.787899	back	-0.1253046
-3.193132	badaa	-0.1590983
-3.898959	badal	-0.08453632
-4.318119	badalaa	-0.08453632
-4.318119	badale	-0.08453633
-4.048557	badalne	-0.08453633
-4.318119	badalte	-0.08453634
-4.162994	badan	-0.08453633
-3.145962	bade	-0.1182386
-3.699534	badh	-0.1762599
-4.318119	badhaa	-0.08453633
-3.898959	badhaai	-0.1971817
-4.318119	badhaaiyaan	-0.08453634
-4.048557	badhaane	-0.08453634
-4.318119	badhaani	-0.08453633
-4.162994	badhaavaa	-0.1361241
-4.318119	badhaayaa	-0.08453633
-4.318119	badhat	-0.08453633
-4.318119	badhe	-0.08453634
-4.318119	badhi	-0.08453634
-4.318119	badhiyaa	-0.08453634
-4.318119	badhkar	-0.08453633
-4.318119	badhnaa	-0.08453633
-4.318119	badhotari	-0.08453633
-4.318119	badhtaa	-0.08453634
-3.416116	badi	-0.08453633
-4.318119	badlaav	-0.08453634
-4.048557	bado	-0.08453634
-4.318119	bagal	-0.08453634
-4.162994	bageechaa	-0.08453634
-4.318119	bageeche	-0.08453634
-4.318119	bageir	-0.08453634
-4.318119	baggage	-0.08453633
-4.318119	bags	-0.08453634
-4.162994	bahaadur	-0.08453633
-4.318119	bahaaduri	-0.08453634
-4.048557	bahaanaa	-0.08453634
-3.787899	bahaane	-0.08453634
-4.318119	bahaar	-0.08453634
-4.162994	bahas	-0.08453634
-4.318119	bahlaane	-0.08453634
-4.318119	bahli	-0.08453633
-4.048557	bahoo	-0.08453633
-3.699534	bahot	-0.1528731
-4.318119	bahri	-0.08453633
-4.318119	bahti	-0.08453632
-4.048557	bahu	-0.08453634
-2.312481	bahut	-0.2623337
-4.318119	bahuthi	-0.08453633
-4.318119	bahuye	-0.08453633
-4.318119	baimaani	-0.08453634
-4.318119	bair	-0.08453634
-4.162994	bairi	-0.08453634
-3.787899	baith	-0.1253046
-3.626145	baithaa	-0.1361241
-4.048557	baithak	-0.1547779
-3.626145	baithe	-0.08453634
-3.563383	baithi	-0.1095647
-4.318119	baithiye	-0.08453634
-4.162994	bajaa	-0.08453633
-4.162994	bajaanaa	-0.08453632
-3.787899	bajaane	-0.1971817
-4.318119	bajaataa	-0.08453633
-4.048557	bajaaye	-0.1547779
-4.162994	bajat	-0.08453634
-3.306341	baje	-0.1682248
-4.318119	bakariyo	-0.08453634
-4.318119	bakawaas	-0.08453633
-4.318119	bakery	-0.08453634
-4.162994	bakhaan	-0.08453634
-4.318119	bakhaaraa	-0.08453633
-4.318119	bakraa	-0.08453634
-3.626145	bal	-0.1067114
-4.318119	balaa	-0.08453634
-4.162994	balki	-0.08453634
-4.318119	bamabai	-0.08453634
-4.318119	bambai	-0.08453633
-3.626145	ban	-0.2432067
-3.306341	banaa	-0.1907883
-4.318119	banaae	-0.08453634
-4.318119	banaai	-0.08453633
-4.318119	banaakar	-0.08453632
-3.787899	banaanaa	-0.08453634
-3.508556	banaane	-0.1434853
-4.318119	banaao	-0.08453634
-4.318119	banaaoge	-0.08453634
-4.318119	banaaras	-0.08453634
-4.048557	banaate	-0.2926899
-4.162994	banaati	-0.08453632
-4.318119	banaavat	-0.08453634
-3.898959	banaayaa	-0.08453633
-4.162994	banaayi	-0.08453633
-4.318119	banawaaliyaa	-0.08453634
-4.318119	banawaani	-0.08453633
-4.162994	bandar	-0.08453634
-3.21879	bandd	-0.2160417
-3.563383	bandh	-0.2544563
-4.318119	bandhan	-0.08453634
-4.318119	bandhkar	-0.08453634
-4.048557	bandook	-0.08453634
-4.318119	bane	-0.08453633
-4.318119	banege	-0.08453634
-3.898959	bani	-0.08453634
-3.563383	bank	-0.2199017
-4.318119	bankar	-0.08453633
-4.318119	banking	-0.08453633
-3.508556	bann	-0.13008
-4.318119	bansi	-0.08453634
-3.898959	bantaa	-0.2305849
-4.318119	banti	-0.08453634
-4.162994	baraabari	-0.08453633
-4.318119	barabaad	-0.08453634
-4.162994	baraf	-0.08453633
-4.162994	baras	-0.08453634
-4.318119	barasaat	-0.08453633
-4.318119	barbaadi	-0.08453634
-4.318119	barcelona	-0.08453634
-3.898959	bardaasht	-0.2305848
-4.318119	barf	-0.08453633
-4.162994	bartaaw	-0.08453634
-4.162994	bartan	-0.08453634
-3.306341	bas	-0.1147482
-4.318119	basaane	-0.08453633
-4.048557	base	-0.08453634
-4.048557	baseball	-0.08453633
-3.626145	basic	-0.1044423
-4.318119	basically	-0.08453634
-4.318119	basis	-0.08453634
-4.318119	basketball	-0.08453634
-4.048557	bastaa	-0.08453634
-4.318119	bat	-0.08453634
-4.162994	bata	-0.08453634
-3.699534	bataa	-0.1132609
-4.318119	bataadenaa	-0.08453634
-4.162994	bataaiye	-0.08453633
-4.318119	bataanaa	-0.08453633
-3.898959	bataane	-0.1253046
-3.787899	bataao	-0.1762599
-4.318119	bataaoo	-0.08453634
-4.048557	bataaoonga	-0.2926899
-4.318119	bataati	-0.08453632
-3.339941	bataayaa	-0.2088067
-4.048557	bataaye	-0.1547779
-4.318119	bathroom	-0.08453634
-4.318119	bathuaa	-0.08453634
-4.048557	batiyaa	-0.1547779
-4.318119	battakh	-0.08453634
-4.318119	battakho	-0.08453633
-4.162994	battameez	-0.08453632
-4.048557	batti	-0.1361241
-4.162994	batvaaraa	-0.08453633
-4.318119	bauchhaare	-0.08453633
-4.318119	bauddh	-0.08453633
-4.318119	bauri	-0.08453634
-4.048557	bayaan	-0.08453633
-4.318119	bayyo	-0.08453633
-3.898959	be	-0.08453634
-4.318119	beat	-0.08453634
-4.162994	beautiful	-0.08453634
-4.318119	beauty	-0.08453633
-4.318119	bebuniyaadi	-0.08453633
-3.103416	because	-0.154765
-4.048557	bech	-0.08453633
-4.048557	bechaari	-0.08453634
-4.318119	bechati	-0.08453632
-4.318119	bechein	-0.08453633
-4.318119	bechi	-0.08453633
-4.318119	bechkar	-0.08453633
-4.318119	bechne	-0.08453634
-4.318119	bechte	-0.08453633
-4.318119	bed	-0.08453633
-3.626145	beech	-0.1586036
-4.318119	beede	-0.08453634
-4.318119	beej	-0.08453634
-4.318119	beejo	-0.08453634
-4.318119	beemaariyaa	-0.08453632
-4.318119	beemaaro	-0.08453634
-4.162994	beemari	-0.08453633
-4.048557	been	-0.1703002
-4.318119	beer	-0.08453634
-4.048557	bees	-0.08453634
-3.898959	beess	-0.1253046
-4.318119	beetals	-0.08453634
-4.318119	beetataa	-0.08453633
-4.318119	beewaa	-0.08453633
-4.318119	beewi	-0.08453634
-4.318119	before	-0.08453633
-4.318119	beg	-0.08453634
-4.318119	begunaah	-0.08453634
-3.787899	behan	-0.08453633
-4.318119	behave	-0.08453632
-4.162994	behno	-0.08453633
-4.318119	behosh	-0.08453634
-4.318119	behoshi	-0.08453634
-3.787899	behtar	-0.1703002
-3.626145	being	-0.1132609
-4.318119	beithanaa	-0.08453633
-4.318119	beithate	-0.08453633
-4.318119	beithko	-0.08453634
-4.318119	beithne	-0.08453634
-4.318119	beitho	-0.08453634
-4.162994	bekaar	-0.08453633
-4.318119	belaa	-0.08453633
-4.048557	believe	-0.1547779
-4.318119	believer	-0.08453634
-4.318119	belong	-0.08453634
-4.318119	benakaab	-0.08453634
-4.318119	benarji	-0.08453634
-4.318119	beni	-0.08453633
-4.318119	besabri	-0.08453634
-4.318119	besamajh	-0.08453634
-4.318119	best	-0.08453633
-4.318119	besudh	-0.08453634
-3.376361	betaa	-0.283345
-3.787899	bete	-0.08453633
-3.339941	beti	-0.1450806
-4.162994	betiyaa	-0.08453634
-4.318119	betiyo	-0.08453634
-3.898959	better	-0.1361241
-4.162994	beyond	-0.08453634
-4.318119	bezzati	-0.08453634
-4.318119	bhaaartiya	-0.08453634
-4.048557	bhaabhi	-0.08453633
-3.898959	bhaabhiji	-0.1361241
-4.318119	bhaad	-0.08453633
-3.508556	bhaag	-0.1044423
-4.318119	bhaagaa	-0.08453634
-4.318119	bhaagataa	-0.08453632
-4.162994	bhaagate	-0.1946762
-4.318119	bhaage	-0.08453634
-4.318119	bhaago	-0.08453634
-4.318119	bhaagoge	-0.08453634
-4.162994	bhaagya	-0.08453634
-4.318119	bhaagyaheen	-0.08453633
-4.318119	bhaagyashaali	-0.08453634
-3.103416	bhaai	-0.1186267
-4.318119	bhaaichaare	-0.08453634
-4.318119	bhaaiyo	-0.08453634
-4.318119	bhaal	-0.08453634
-4.318119	bhaanti	-0.08453633
-4.318119	bhaanumati	-0.08453634
-4.318119	bhaar	-0.08453633
-3.08361	bhaarat	-0.2082449
-4.318119	bhaaratratna	-0.08453634
-3.787899	bhaari	-0.08453634
-4.318119	bhaartiya	-0.08453633
-3.787899	bhaashaa	-0.1253046
-4.162994	bhaashaaeà¤?	-0.08453631
-4.162994	bhaashaao	-0.08453634
-4.318119	bhaashaaye	-0.08453633
-4.162994	bhaashan	-0.08453633
-4.162994	bhaati	-0.08453633
-3.626145	bhaav	-0.1132609
-4.162994	bhaavaj	-0.08453633
-4.162994	bhaavnaa	-0.08453634
-4.318119	bhaavnaae	-0.08453634
-4.318119	bhaavo	-0.08453633
-4.318119	bhaawanaao	-0.08453633
-4.318119	bhadr	-0.08453633
-4.318119	bhagvati	-0.08453634
-3.416116	bhagwaan	-0.1500388
-4.162994	bhains	-0.08453633
-3.416116	bhaiyaa	-0.2306354
-4.318119	bhakt	-0.08453634
-4.318119	bhakti	-0.08453634
-4.162994	bhakto	-0.1946762
-3.787899	bhalaa	-0.08453634
-4.318119	bhalaai	-0.08453634
-4.162994	bhale	-0.08453634
-4.318119	bhali	-0.08453633
-4.318119	bhalibhaati	-0.08453634
-3.339941	bhar	-0.09613493
-3.699534	bharaa	-0.1182386
-4.318119	bharaaye	-0.08453633
-4.162994	bharanaa	-0.08453633
-4.318119	bharani	-0.08453634
-4.318119	bhare	-0.08453634
-4.318119	bharegaa	-0.08453634
-4.318119	bhari	-0.08453634
-4.318119	bharnaa	-0.08453634
-3.563383	bharosaa	-0.2710542
-4.318119	bharose	-0.08453634
-4.318119	bharpaai	-0.08453634
-4.318119	bhatakne	-0.08453633
-4.318119	bhataktaa	-0.08453634
-4.318119	bhaukataa	-0.08453634
-4.048557	bhautik	-0.1547779
-4.162994	bhavan	-0.08453633
-4.318119	bhavbhinit	-0.08453633
-4.048557	bhavishaya	-0.08453634
-4.048557	bhay	-0.1547779
-4.318119	bhayaanak	-0.08453633
-4.162994	bheed	-0.08453634
-4.318119	bheeg	-0.08453633
-4.318119	bheemrao	-0.08453633
-4.318119	bheetar	-0.08453634
-4.162994	bhej	-0.08453634
-4.162994	bhejaa	-0.08453634
-4.318119	bheje	-0.08453634
-4.318119	bheji	-0.08453633
-4.318119	bhejne	-0.08453634
-4.318119	bhejo	-0.08453634
-4.162994	bhejte	-0.1946762
-4.318119	bhent	-0.08453634
-4.318119	bheyvash	-0.08453634
-2.248558	bhi	-0.1740657
-4.318119	bhid	-0.08453633
-4.318119	bhijawaadungaa	-0.08453634
-4.318119	bhikhaari	-0.08453633
-4.318119	bhikshaa	-0.08453633
-4.318119	bhikshuk	-0.08453634
-4.318119	bhinnataa	-0.08453634
-4.318119	bhognaa	-0.08453634
-4.318119	bhoj	-0.08453633
-3.563383	bhojan	-0.1067114
-3.787899	bhojpuri	-0.1253046
-4.318119	bholi	-0.08453634
-4.318119	bhook	-0.08453633
-3.626145	bhookh	-0.1619098
-4.048557	bhool	-0.08453632
-4.318119	bhoomikaa	-0.08453634
-4.318119	bhoop	-0.08453634
-4.162994	bhoot	-0.08453634
-3.898959	bhrashtaachaar	-0.1547779
-4.318119	bhu	-0.08453634
-4.162994	bhukamp	-0.08453633
-4.162994	bhuktaan	-0.08453634
-3.563383	bhul	-0.214738
-4.318119	bhulaa	-0.08453634
-4.162994	bhulanaa	-0.08453633
-4.318119	bhulati	-0.08453633
-4.318119	bhuli	-0.08453633
-4.318119	bhuliyegaa	-0.08453634
-4.318119	bhulne	-0.08453634
-4.318119	bhulungaa	-0.08453634
-4.318119	bichhaai	-0.08453634
-4.318119	bichhi	-0.08453633
-4.318119	bidi	-0.08453633
-4.318119	big	-0.08453633
-4.318119	bigad	-0.08453633
-4.318119	bigadti	-0.08453633
-4.318119	bigde	-0.08453634
-4.318119	bihaar	-0.08453633
-4.162994	bihaari	-0.08453634
-3.699534	bijli	-0.1095647
-4.318119	bik	-0.08453634
-4.318119	bikher	-0.08453634
-4.318119	bikri	-0.08453634
-3.459882	bilkul	-0.1010606
-4.048557	billi	-0.1547779
-3.626145	bimaar	-0.1095647
-3.563383	binaa	-0.1214362
-4.318119	biraadari	-0.08453633
-4.318119	birangi	-0.08453633
-3.787899	bistar	-0.1971817
-4.318119	bitaayi	-0.08453634
-4.162994	bitcoin	-0.08453634
-4.318119	bizarre	-0.08453634
-4.162994	black	-0.08453633
-4.318119	bloody	-0.08453633
-4.318119	bohani	-0.08453633
-4.318119	bojh	-0.08453633
-3.626145	bol	-0.15145
-3.193132	bolaa	-0.2534314
-3.416116	bole	-0.1627432
-4.048557	bolege	-0.1547779
-3.246058	boli	-0.2627829
-4.318119	bollywood	-0.08453633
-3.898959	bolnaa	-0.08453633
-3.898959	bolne	-0.08453633
-4.318119	bolni	-0.08453632
-3.898959	bolo	-0.1253046
-4.048557	boltaa	-0.2926899
-4.048557	bolte	-0.1361241
-3.787899	bolti	-0.3274949
-4.318119	bolu	-0.08453634
-4.318119	bolugaa	-0.08453634
-4.318119	bonnie	-0.08453634
-4.318119	booge	-0.08453634
-4.048557	book	-0.08453633
-4.318119	boond	-0.08453633
-4.318119	boote	-0.08453634
-4.048557	bore	-0.1547779
-4.318119	boring	-0.08453633
-4.318119	born	-0.08453633
-4.048557	boss	-0.08453633
-4.162994	bostan	-0.08453634
-4.318119	botale	-0.08453633
-4.318119	bother	-0.08453634
-4.318119	bothered	-0.08453633
-4.318119	boundary	-0.08453634
-4.318119	boyfriend	-0.08453634
-4.318119	boyfriends	-0.08453634
-4.162994	boys	-0.1946762
-4.318119	brahaspativaar	-0.08453633
-4.162994	brahmano	-0.08453632
-4.318119	branch	-0.08453634
-4.162994	bread	-0.08453633
-4.318119	breaker	-0.08453634
-4.318119	breakfast	-0.08453633
-4.318119	breakup	-0.08453634
-3.898959	bridge	-0.1361241
-4.162994	bring	-0.08453633
-4.318119	british	-0.08453634
-4.162994	brought	-0.08453633
-4.318119	brown	-0.08453634
-4.318119	browse	-0.08453634
-4.318119	brushed	-0.08453634
-4.318119	buaa	-0.08453634
-3.898959	buddhi	-0.08453634
-4.162994	buddhimaan	-0.08453633
-3.898959	budget	-0.08453633
-3.898959	budhaa	-0.1971817
-4.048557	budhe	-0.08453633
-4.318119	budhi	-0.08453634
-4.318119	bujhane	-0.08453634
-3.898959	bukhaar	-0.08453634
-4.318119	bulaaeà¤?g	-0.08453634
-4.318119	bulaakar	-0.08453633
-4.162994	bulaanaa	-0.08453634
-4.318119	bulaane	-0.08453633
-4.318119	bulaate	-0.08453633
-3.787899	bulaayaa	-0.1971817
-4.318119	bulaayi	-0.08453634
-4.318119	bulletin	-0.08453633
-4.318119	bulwaayi	-0.08453634
-4.318119	bumper	-0.08453634
-4.318119	buniyaadi	-0.08453633
-4.318119	bunnaa	-0.08453633
-3.898959	buraa	-0.1361241
-4.162994	buraai	-0.08453633
-4.162994	bure	-0.08453634
-4.318119	bureau	-0.08453634
-3.898959	buri	-0.08453634
-4.318119	burn	-0.08453633
-4.318119	business	-0.08453634
-3.787899	busy	-0.1182386
-3.306341	but	-0.1205206
-3.563383	by	-0.08453633
-4.162994	byaah	-0.08453633
-4.162994	bye	-0.08453634
-4.318119	bystander	-0.08453634
-3.416116	cake	-0.1025945
-4.318119	calculator	-0.08453634
-4.048557	call	-0.08453634
-4.318119	came	-0.08453633
-4.048557	camera	-0.08453634
-4.048557	can	-0.08453632
-4.048557	canada	-0.08453634
-3.787899	cancer	-0.1703002
-4.162994	candid	-0.08453632
-4.162994	cant	-0.08453633
-4.162994	canteen	-0.08453634
-4.318119	capable	-0.08453634
-4.318119	capacity	-0.08453633
-4.162994	car	-0.08453634
-4.318119	card	-0.08453633
-4.318119	care	-0.08453634
-4.318119	caring	-0.08453634
-4.318119	carpet	-0.08453634
-4.318119	carry	-0.08453633
-4.318119	case	-0.08453633
-4.162994	cash	-0.08453633
-4.162994	cashless	-0.08453634
-4.318119	casual	-0.08453633
-4.318119	catholic	-0.08453633
-4.318119	celebrity	-0.08453634
-4.318119	celluloid	-0.08453634
-4.318119	center	-0.08453633
-4.318119	central	-0.08453633
-4.318119	centre	-0.08453634
-4.048557	certain	-0.08453633
-4.048557	certificate	-0.1547779
-4.048557	chaabi	-0.08453634
-4.318119	chaabiyo	-0.08453634
-4.162994	chaachaa	-0.08453633
-4.318119	chaadar	-0.08453633
-4.318119	chaadare	-0.08453633
-4.318119	chaahaa	-0.08453634
-3.306341	chaahe	-0.09866117
-4.048557	chaahege	-0.1547779
-4.162994	chaahegi	-0.08453633
-4.162994	chaahenge	-0.08453634
-4.318119	chaahengi	-0.08453633
-4.162994	chaahieà¤?	-0.1946762
-2.897514	chaahiye	-0.8029453
-4.318119	chaaho	-0.08453634
-4.318119	chaahogi	-0.08453634
-4.318119	chaahta	-0.08453632
-3.124168	chaahtaa	-0.5006346
-3.21879	chaahte	-0.5241917
-3.339941	chaahti	-0.1962404
-3.787899	chaahungaa	-0.5145386
-4.162994	chaahungi	-0.08453633
-3.459882	chaai	-0.1010606
-4.318119	chaaku	-0.08453633
-4.162994	chaal	-0.08453634
-4.318119	chaalbaaz	-0.08453633
-3.898959	chaalu	-0.1182386
-4.048557	chaand	-0.08453632
-3.339941	chaar	-0.1155512
-4.162994	chaaro	-0.08453634
-4.318119	chaarpaai	-0.08453634
-4.318119	chacheraa	-0.08453633
-4.318119	chadaanaa	-0.08453633
-4.162994	chadh	-0.08453633
-4.162994	chadhaa	-0.08453634
-4.318119	chadhaakar	-0.08453634
-4.318119	chadhane	-0.08453633
-4.318119	chadhate	-0.08453634
-4.318119	chadhke	-0.08453634
-4.318119	chadte	-0.08453633
-4.318119	chahaataa	-0.08453632
-3.145962	chahiye	-0.3541581
-4.162994	chahte	-0.08453633
-4.318119	chakaachaundh	-0.08453632
-4.318119	chakh	-0.08453634
-4.318119	chakhakar	-0.08453633
-4.318119	chakhate	-0.08453634
-4.318119	chakkar	-0.08453633
-3.168907	chal	-0.2138564
-3.193132	chalaa	-0.2940952
-4.318119	chalaadi	-0.08453634
-4.162994	chalaakar	-0.08453634
-3.699534	chalaanaa	-0.1182386
-4.318119	chalaane	-0.08453634
-4.318119	chalaani	-0.08453634
-4.048557	chalaati	-0.2926899
-4.318119	chalanaa	-0.08453633
-4.162994	chalane	-0.08453633
-4.318119	chalataa	-0.08453633
-4.048557	chalate	-0.2926899
-3.459882	chale	-0.1214362
-3.898959	chalegaa	-0.2305848
-4.318119	chalegi	-0.08453634
-3.699534	chali	-0.2926899
-4.318119	chaliye	-0.08453634
-3.898959	chalne	-0.08453633
-3.898959	chalo	-0.08453633
-4.318119	chaloo	-0.08453634
-3.898959	chaltaa	-0.08453633
-4.318119	chalte	-0.08453634
-4.318119	chalti	-0.08453634
-4.162994	chalu	-0.08453634
-4.318119	chamatkaar	-0.08453633
-4.318119	chamde	-0.08453633
-4.318119	chanaa	-0.08453633
-4.318119	chances	-0.08453633
-4.318119	chandaa	-0.08453632
-4.318119	chande	-0.08453634
-4.318119	chandni	-0.08453634
-4.318119	chandrabaabu	-0.08453633
-4.318119	change	-0.08453634
-4.162994	changing	-0.08453634
-4.318119	channel	-0.08453634
-4.318119	chapaati	-0.08453633
-3.898959	chapter	-0.08453634
-4.318119	charaane	-0.08453634
-4.048557	character	-0.08453634
-4.318119	charan	-0.08453634
-4.318119	charano	-0.08453634
-4.162994	charchaa	-0.1547779
-4.318119	charges	-0.08453633
-4.318119	charitr	-0.08453634
-4.318119	charmer	-0.08453634
-4.318119	chashmaa	-0.08453633
-4.318119	chashmadeed	-0.08453633
-4.318119	chashme	-0.08453633
-4.318119	chat	-0.08453633
-4.318119	chatt	-0.08453633
-4.318119	chattaan	-0.08453634
-4.162994	chatur	-0.08453634
-4.048557	chaubees	-0.1547779
-4.162994	chaudaa	-0.08453634
-4.318119	chaudah	-0.08453634
-4.318119	chaudhari	-0.08453634
-4.162994	chaudi	-0.08453634
-4.162994	chauk	-0.08453633
-4.318119	chaukaa	-0.08453634
-4.318119	chauke	-0.08453633
-4.318119	chaulahi	-0.08453633
-4.318119	chauraasi	-0.08453633
-4.318119	chauthaai	-0.08453634
-4.318119	chauthi	-0.08453633
-3.898959	chawal	-0.08453634
-3.626145	che	-0.1095647
-4.318119	check	-0.08453633
-3.898959	cheej	-0.08453633
-3.898959	cheeje	-0.08453633
-4.318119	cheejo	-0.08453634
-4.318119	cheekhaa	-0.08453634
-3.898959	cheen	-0.08453634
-3.626145	cheeni	-0.1095647
-4.318119	cheers	-0.08453634
-4.318119	cheet	-0.08453634
-3.459882	cheez	-0.09687024
-4.048557	cheeze	-0.08453634
-4.162994	cheezo	-0.1946762
-4.318119	chehare	-0.08453633
-4.318119	chemical	-0.08453633
-4.162994	chemistry	-0.08453634
-4.162994	chhaa	-0.08453634
-4.318119	chhaad	-0.08453634
-4.318119	chhaanabeen	-0.08453634
-4.318119	chhaano	-0.08453634
-4.048557	chhaataa	-0.08453634
-4.318119	chhaate	-0.08453634
-4.048557	chhaayaa	-0.1547779
-4.318119	chhabbis	-0.08453633
-3.376361	chhah	-0.2939192
-4.162994	chhalaang	-0.08453634
-4.318119	chhapegi	-0.08453634
-4.048557	chhat	-0.08453633
-4.162994	chhati	-0.08453634
-4.318119	chhattis	-0.08453634
-4.318119	chhayi	-0.08453633
-4.318119	chhe	-0.08453633
-4.318119	chheen	-0.08453634
-4.318119	chhiyaalees	-0.08453633
-3.246058	chhod	-0.3129738
-4.318119	chhodaa	-0.08453634
-4.048557	chhode	-0.08453633
-4.318119	chhodege	-0.08453634
-4.318119	chhodi	-0.08453634
-4.318119	chhodkar	-0.08453633
-4.162994	chhodnaa	-0.08453634
-4.162994	chhodne	-0.1946762
-4.318119	chhodni	-0.08453634
-4.318119	chhodo	-0.08453634
-4.318119	chhodu	-0.08453634
-4.318119	chhokre	-0.08453634
-3.898959	chhoot	-0.08453633
-4.318119	chhooti	-0.08453634
-3.508556	chhotaa	-0.1856451
-3.459882	chhote	-0.1361241
-3.626145	chhoti	-0.1253046
-4.318119	chhudaanaa	-0.08453634
-4.318119	chhudaataa	-0.08453633
-4.318119	chhudaate	-0.08453634
-4.162994	chhunaa	-0.08453633
-4.318119	chhune	-0.08453634
-4.048557	chhupaa	-0.08453634
-4.318119	chhupaayi	-0.08453634
-4.318119	chhupi	-0.08453633
-3.898959	chhut	-0.08453633
-4.318119	chhutney	-0.08453633
-4.162994	chhutti	-0.08453633
-4.318119	chidaa	-0.08453633
-4.318119	chidh	-0.08453634
-3.699534	chidiyaa	-0.1182386
-4.048557	chidiyo	-0.2926899
-4.318119	chikaliyaa	-0.08453633
-4.318119	chikitsak	-0.08453634
-4.318119	chikne	-0.08453634
-4.048557	chilam	-0.1547779
-4.162994	child	-0.08453634
-4.318119	chillaa	-0.08453633
-4.318119	chillaaiye	-0.08453633
-4.162994	chillaane	-0.08453633
-4.318119	chillaao	-0.08453633
-4.318119	chillaayaa	-0.08453634
-4.318119	chiltaa	-0.08453632
-4.048557	chintaa	-0.1547779
-4.162994	chintit	-0.08453634
-4.318119	chipaakar	-0.08453633
-4.318119	chir	-0.08453633
-4.318119	chiraag	-0.08453634
-4.318119	chirrag	-0.08453632
-3.898959	chit	-0.08453634
-3.898959	chitaa	-0.2305848
-4.162994	chitro	-0.08453634
-3.416116	chitthi	-0.1215022
-4.318119	chitthiyaa	-0.08453634
-4.318119	chittiyaa	-0.08453634
-4.162994	chize	-0.08453633
-4.318119	chocolate	-0.08453633
-4.162994	choice	-0.08453633
-4.318119	choices	-0.08453634
-4.318119	cholaa	-0.08453633
-4.318119	chook	-0.08453634
-4.048557	choose	-0.08453634
-3.898959	chor	-0.08453634
-3.699534	chori	-0.1762599
-4.318119	choro	-0.08453633
-3.787899	chot	-0.1253046
-4.162994	christmas	-0.08453634
-4.318119	chuhaa	-0.08453634
-4.318119	chuhe	-0.08453634
-4.162994	chuk	-0.08453634
-3.699534	chukaa	-0.3171886
-4.318119	chukaai	-0.08453634
-4.162994	chukaanaa	-0.08453633
-4.318119	chukaane	-0.08453634
-4.318119	chukaataa	-0.08453634
-3.563383	chuke	-0.4687812
-3.787899	chuki	-0.2199017
-4.318119	chunaa	-0.08453633
-4.048557	chunaav	-0.08453633
-4.318119	chunindaa	-0.08453633
-4.318119	chunnaa	-0.08453634
-3.699534	chup	-0.1762599
-4.318119	chupchaap	-0.08453634
-4.162994	chupke	-0.1946762
-4.048557	churaa	-0.1547779
-4.318119	churaane	-0.08453634
-4.318119	church	-0.08453633
-4.318119	chuspan	-0.08453634
-3.508556	cigarette	-0.2418239
-3.898959	cinema	-0.08453633
-4.318119	circumvent	-0.08453634
-4.318119	citizens	-0.08453634
-4.318119	claim	-0.08453632
-3.787899	class	-0.3274949
-4.318119	classroom	-0.08453634
-4.162994	clearly	-0.08453634
-4.318119	client	-0.08453633
-4.318119	climatic	-0.08453633
-4.162994	climax	-0.08453634
-4.162994	close	-0.08453633
-4.318119	closely	-0.08453633
-3.898959	club	-0.1361241
-4.162994	coal	-0.08453634
-4.318119	cod	-0.08453634
-3.626145	coffee	-0.08453634
-4.318119	coke	-0.08453634
-3.626145	college	-0.1132609
-4.318119	collegues	-0.08453633
-4.318119	colour	-0.08453634
-4.318119	columbus	-0.08453633
-4.318119	com	-0.08453633
-3.699534	come	-0.1182386
-3.898959	comeback	-0.08453634
-4.318119	comedy	-0.08453634
-4.162994	comes	-0.08453634
-4.318119	comfort	-0.08453634
-4.318119	comic	-0.08453634
-4.318119	coming	-0.08453634
-4.318119	commands	-0.08453633
-4.318119	commend	-0.08453634
-4.048557	commerce	-0.1361241
-4.048557	committee	-0.1361241
-4.318119	common	-0.08453634
-4.318119	companiyo	-0.08453633
-4.162994	company	-0.08453634
-4.318119	compassion	-0.08453633
-4.318119	competition	-0.08453633
-4.048557	complete	-0.1547779
-3.787899	completely	-0.08453633
-4.318119	compulsion	-0.08453634
-4.048557	compulsory	-0.1547779
-3.898959	computer	-0.08453633
-4.162994	concert	-0.08453634
-4.318119	confronting	-0.08453634
-4.318119	congress	-0.08453634
-4.318119	conjecture	-0.08453633
-4.318119	conscious	-0.08453633
-4.318119	consider	-0.08453632
-4.318119	considering	-0.08453633
-4.318119	constitue	-0.08453634
-4.318119	constituent	-0.08453634
-4.162994	constitution	-0.1946762
-4.318119	content	-0.08453633
-4.318119	conversation	-0.08453634
-4.318119	conversational	-0.08453634
-4.318119	convert	-0.08453634
-4.318119	cool	-0.08453634
-4.318119	copiyaa	-0.08453633
-4.318119	copyright	-0.08453633
-4.162994	cornegi	-0.08453633
-4.318119	costars	-0.08453633
-4.162994	could	-0.1946762
-4.162994	counter	-0.08453633
-3.898959	couple	-0.08453633
-3.787899	course	-0.15145
-4.162994	cousin	-0.08453633
-4.318119	coy	-0.08453633
-4.318119	creative	-0.08453634
-4.318119	creativity	-0.08453634
-3.898959	cricket	-0.4176286
-4.318119	critical	-0.08453634
-3.508556	crore	-0.13008
-4.318119	cross	-0.08453633
-4.318119	crowd	-0.08453634
-4.318119	cuisine	-0.08453634
-4.318119	culture	-0.08453634
-4.318119	cup	-0.08453634
-4.162994	cut	-0.08453634
-4.162994	cute	-0.08453634
-3.699534	daadaa	-0.2544563
-4.318119	daadaaji	-0.08453633
-4.162994	daadhi	-0.08453633
-4.048557	daadi	-0.08453633
-4.318119	daah	-0.08453633
-4.318119	daahinaa	-0.08453633
-4.318119	daak	-0.08453633
-3.459882	daal	-0.1856451
-4.048557	daalaa	-0.2926899
-4.318119	daaldo	-0.08453634
-4.048557	daale	-0.08453634
-3.787899	daali	-0.1253046
-4.318119	daaliyo	-0.08453634
-4.318119	daalkar	-0.08453633
-4.318119	daalke	-0.08453633
-4.048557	daalmiyaa	-0.08453634
-4.048557	daalnaa	-0.08453634
-4.162994	daalne	-0.08453634
-4.318119	daaloge	-0.08453634
-4.318119	daalte	-0.08453633
-4.048557	daalti	-0.1547779
-4.162994	daam	-0.08453633
-4.162994	daan	-0.08453633
-4.162994	daanaa	-0.1946762
-4.318119	daane	-0.08453634
-3.699534	daant	-0.08453632
-4.162994	daantaa	-0.08453633
-4.162994	daanto	-0.08453633
-4.318119	daanwaadol	-0.08453633
-4.318119	daaru	-0.08453633
-4.318119	daastaan	-0.08453634
-4.318119	daatti	-0.08453633
-4.318119	daayar	-0.08453634
-4.318119	dabaakar	-0.08453634
-4.318119	dabaate	-0.08453633
-4.162994	dabaati	-0.1946762
-4.318119	dabaav	-0.08453634
-4.318119	dabaaye	-0.08453633
-4.048557	dabbaa	-0.08453633
-3.787899	dabbe	-0.1971817
-4.318119	dabboo	-0.08453633
-4.162994	dabe	-0.1946762
-4.318119	dabi	-0.08453633
-4.318119	dabtaa	-0.08453633
-3.898959	dad	-0.1132609
-4.318119	daddy	-0.08453633
-4.318119	dafnaayaa	-0.08453633
-3.787899	daftar	-0.1182386
-4.318119	dahak	-0.08453633
-4.318119	dahashat	-0.08453633
-4.318119	dahej	-0.08453634
-4.318119	daily	-0.08453633
-4.318119	dainik	-0.08453634
-4.048557	dakshin	-0.1547779
-4.318119	dakshinaa	-0.08453633
-4.318119	dal	-0.08453633
-4.318119	dalaalo	-0.08453634
-4.318119	dalit	-0.08453634
-4.318119	damm	-0.08453634
-3.563383	dance	-0.1095647
-4.162994	dancer	-0.08453634
-4.318119	dancers	-0.08453634
-4.318119	dancing	-0.08453634
-3.898959	dand	-0.1361241
-3.787899	dar	-0.1132609
-4.318119	daraa	-0.08453634
-4.318119	daraanaa	-0.08453634
-4.318119	daraare	-0.08453633
-4.318119	daraasal	-0.08453633
-4.318119	daraataa	-0.08453634
-4.318119	daraate	-0.08453633
-4.318119	daraati	-0.08453633
-4.318119	darbaar	-0.08453633
-3.626145	dard	-0.15145
-4.162994	darjan	-0.08453634
-4.162994	daro	-0.08453633
-4.318119	darp	-0.08453634
-3.898959	darshako	-0.1361241
-4.318119	darshan	-0.08453634
-4.318119	darshano	-0.08453633
-4.318119	darsnik	-0.08453634
-4.318119	darti	-0.08453633
-3.898959	darwaazaa	-0.08453634
-3.699534	darwaaze	-0.1067114
-3.08361	das	-0.2700002
-3.898959	dashaa	-0.1095647
-4.318119	dashhare	-0.08453634
-4.318119	dasiyo	-0.08453633
-4.318119	dastaavesh	-0.08453633
-4.318119	dasvi	-0.08453633
-4.318119	dat	-0.08453633
-4.162994	date	-0.08453633
-4.048557	dating	-0.1547779
-3.787899	daud	-0.1253046
-4.318119	daudaa	-0.08453634
-4.162994	daudne	-0.08453633
-4.318119	daudte	-0.08453634
-4.318119	daur	-0.08453634
-4.048557	davaa	-0.08453634
-4.318119	davis	-0.08453633
-4.048557	dawaai	-0.08453633
-3.898959	day	-0.08453633
-4.048557	dayaa	-0.08453633
-4.162994	dayaalu	-0.08453634
-4.318119	days	-0.08453634
-3.145962	de	-0.1438111
-4.048557	deal	-0.08453634
-4.318119	debate	-0.08453633
-4.318119	debating	-0.08453634
-4.048557	december	-0.08453633
-4.162994	decency	-0.08453632
-4.318119	decide	-0.08453632
-4.318119	decided	-0.08453634
-4.048557	decision	-0.08453633
-4.318119	deconstruct	-0.08453633
-4.162994	dedh	-0.08453633
-4.162994	dedication	-0.08453634
-4.318119	dedijiye	-0.08453634
-4.318119	dediyaa	-0.08453633
-4.318119	dee	-0.08453634
-4.318119	deepikaa	-0.08453633
-4.318119	deeply	-0.08453634
-4.162994	deevaar	-0.1946762
-4.318119	defend	-0.08453634
-4.162994	definitely	-0.08453632
-4.318119	degaa	-0.08453634
-4.048557	dege	-0.1547779
-4.048557	degi	-0.2926899
-4.162994	degree	-0.08453634
-4.048557	deh	-0.08453633
-4.162994	dehaant	-0.08453633
-3.898959	dein	-0.1253046
-4.318119	deindaar	-0.08453634
-4.162994	dekar	-0.08453634
-3.046519	dekh	-0.2100254
-2.99622	dekhaa	-0.4072084
-4.162994	dekhataa	-0.08453633
-3.898959	dekhbhaal	-0.08453634
-3.898959	dekhe	-0.08453633
-4.318119	dekhegaa	-0.08453634
-3.787899	dekhi	-0.1182386
-3.898959	dekhiye	-0.08453633
-3.508556	dekhkar	-0.1025945
-3.787899	dekhke	-0.08453634
-3.459882	dekhnaa	-0.1010606
-3.459882	dekhne	-0.1214362
-4.318119	dekhni	-0.08453633
-3.787899	dekho	-0.08453633
-3.416116	dekhte	-0.2974764
-4.318119	dekhti	-0.08453634
-4.318119	dekhu	-0.08453633
-4.318119	dekhungaa	-0.08453634
-4.048557	delhi	-0.1253046
-4.318119	deliver	-0.08453634
-4.318119	demo	-0.08453634
-4.318119	democracy	-0.08453634
-4.162994	democratic	-0.1547779
-3.145962	denaa	-0.240248
-4.318119	dendaar	-0.08453633
-3.376361	dene	-0.2207515
-4.048557	denge	-0.2926899
-4.162994	dengi	-0.08453634
-4.162994	deni	-0.08453634
-4.318119	depends	-0.08453634
-3.306341	der	-0.2683053
-4.318119	derahe	-0.08453633
-3.21879	desh	-0.1467075
-4.318119	deshdrohi	-0.08453634
-4.318119	desho	-0.08453634
-4.318119	deshwaasi	-0.08453634
-4.162994	deshwaasiyo	-0.08453633
-4.162994	deshwasi	-0.08453634
-4.318119	desi	-0.08453633
-4.318119	designer	-0.08453634
-4.318119	desired	-0.08453634
-4.318119	despite	-0.08453634
-3.563383	detaa	-0.1547779
-3.563383	dete	-0.314114
-3.416116	deti	-0.2921879
-4.318119	dev	-0.08453633
-4.318119	devar	-0.08453634
-4.162994	devi	-0.1946762
-4.318119	device	-0.08453634
-4.318119	deviyo	-0.08453634
-4.318119	devtaao	-0.08453634
-4.318119	dewaar	-0.08453634
-4.318119	dhaam	-0.08453634
-4.318119	dhaatu	-0.08453633
-4.318119	dhabbe	-0.08453633
-4.318119	dhairyavaan	-0.08453634
-4.318119	dhak	-0.08453634
-4.318119	dhal	-0.08453634
-3.699534	dhan	-0.1214362
-4.318119	dhandhaany	-0.08453633
-4.318119	dhandhali	-0.08453633
-4.162994	dhang	-0.08453633
-4.162994	dhani	-0.08453633
-3.898959	dhanyawaad	-0.1946762
-4.318119	dhare	-0.08453634
-3.787899	dharm	-0.08453634
-4.318119	dharmaarth	-0.08453633
-4.318119	dharmunpeksh	-0.08453634
-4.318119	dharti	-0.08453634
-3.787899	dhayaan	-0.3274949
-3.563383	dheere	-0.1689805
-4.162994	dher	-0.08453632
-4.318119	dhero	-0.08453634
-4.318119	dheya	-0.08453634
-4.048557	dhimi	-0.08453634
-4.318119	dhingamushti	-0.08453634
-4.318119	dhithaai	-0.08453634
-4.162994	dhokhaa	-0.08453633
-4.162994	dhonaa	-0.08453633
-4.318119	dhone	-0.08453634
-4.048557	dhoo	-0.2926899
-4.162994	dhool	-0.08453633
-4.162994	dhoom	-0.1946762
-4.318119	dhoomdhaam	-0.08453634
-4.318119	dhoop	-0.08453632
-4.318119	dhost	-0.08453634
-4.318119	dhoyi	-0.08453633
-4.318119	dhrupad	-0.08453633
-4.318119	dhukhi	-0.08453633
-4.318119	dhulaai	-0.08453634
-4.318119	dhulwaani	-0.08453633
-4.162994	dhumrapaan	-0.08453633
-4.318119	dhun	-0.08453634
-3.699534	dhund	-0.1547779
-4.318119	dhundaa	-0.08453634
-4.318119	dhundhane	-0.08453633
-4.318119	dhundhenge	-0.08453634
-4.318119	dhundnaa	-0.08453634
-4.162994	dhundne	-0.1946762
-4.318119	dhvani	-0.08453634
-3.898959	dhyaan	-0.08453633
-4.318119	dhyaanpoorwak	-0.08453633
-2.99622	di	-0.5360219
-4.318119	diarrhoea	-0.08453634
-4.318119	dictionary	-0.08453634
-4.162994	did	-0.08453633
-3.787899	didi	-0.1253046
-4.162994	didnt	-0.08453632
-4.162994	die	-0.08453633
-4.162994	diesel	-0.1946762
-4.318119	difference	-0.08453633
-4.162994	different	-0.08453634
-3.898959	difficult	-0.08453633
-4.318119	digi	-0.08453633
-3.699534	digital	-0.15145
-4.318119	dignity	-0.08453634
-4.048557	dii	-0.1547779
-3.787899	dijiye	-0.3274949
-4.162994	dijiyegaa	-0.1946762
-4.162994	dikh	-0.08453634
-3.699534	dikhaa	-0.08453634
-3.626145	dikhaai	-0.1132609
-4.162994	dikhaaiye	-0.08453633
-4.048557	dikhaanaa	-0.08453634
-4.048557	dikhaane	-0.1547779
-4.318119	dikhaao	-0.08453634
-4.318119	dikhaaoge	-0.08453634
-4.048557	dikhaataa	-0.1547779
-4.318119	dikhaate	-0.08453634
-4.162994	dikhaati	-0.08453634
-4.162994	dikhaaungaa	-0.08453633
-4.162994	dikhaayaa	-0.08453634
-4.048557	dikhaayi	-0.08453634
-4.318119	dikhegaa	-0.08453634
-4.318119	dikhtaa	-0.08453633
-3.626145	dil	-0.1132609
-4.318119	dilaati	-0.08453633
-4.162994	dilaayaa	-0.1946762
-4.048557	dilchasp	-0.08453634
-4.318119	dilchaspi	-0.08453633
-4.048557	dilli	-0.08453634
-4.318119	dilo	-0.08453634
-4.318119	dilojaan	-0.08453634
-3.699534	dimaag	-0.2926899
-2.81714	din	-0.1752641
-4.162994	dinner	-0.08453634
-3.459882	dino	-0.2653469
-4.162994	director	-0.08453634
-4.318119	disarmed	-0.08453633
-4.318119	disclosure	-0.08453633
-4.048557	dishaa	-0.1547779
-4.318119	dishaao	-0.08453634
-4.318119	distracted	-0.08453634
-4.318119	division	-0.08453632
-4.318119	divorce	-0.08453634
-4.162994	diwaaliyaa	-0.08453633
-4.318119	diwaar	-0.08453633
-4.318119	diwas	-0.08453633
-4.318119	dixit	-0.08453633
-2.64608	diyaa	-0.5619473
-3.699534	diye	-0.1547779
-4.162994	dm	-0.1946762
-2.849783	do	-0.216025
-3.898959	dobaaraa	-0.08453633
-3.339941	doctor	-0.09390166
-4.318119	document	-0.08453634
-4.318119	does	-0.08453633
-4.318119	doesnt	-0.08453634
-4.048557	doge	-0.1547779
-4.318119	dohre	-0.08453634
-4.048557	dollar	-0.08453633
-4.162994	done	-0.08453634
-2.951146	dono	-0.140095
-4.318119	donor	-0.08453634
-3.626145	dont	-0.1892428
-2.923503	doo	-0.1922776
-4.318119	doob	-0.08453633
-4.318119	doobaa	-0.08453634
-3.699534	doodh	-0.1182386
-4.318119	doors	-0.08453634
-4.162994	doosre	-0.08453632
-4.318119	doosri	-0.08453633
-3.626145	dopahar	-0.08453633
-4.318119	dopaharbhar	-0.08453633
-4.048557	dopeher	-0.1547779
-4.318119	dosh	-0.08453634
-3.275155	dost	-0.2046362
-4.318119	dosti	-0.08453633
-3.898959	dosto	-0.1253046
-4.318119	double	-0.08453634
-4.162994	down	-0.08453633
-4.162994	drafting	-0.1946762
-3.898959	draw	-0.1361241
-3.898959	dream	-0.1946762
-3.898959	dress	-0.08453633
-4.318119	dresses	-0.08453634
-4.318119	drive	-0.08453634
-4.318119	drohiyo	-0.08453633
-4.318119	duaraa	-0.08453633
-4.318119	dubaa	-0.08453633
-4.162994	dubate	-0.1946762
-4.318119	dubey	-0.08453633
-4.318119	dubki	-0.08453634
-3.787899	dudh	-0.1253046
-4.318119	dugi	-0.08453634
-3.898959	dukaan	-0.08453634
-3.787899	dukh	-0.08453633
-4.048557	dukhi	-0.08453634
-4.318119	dulaa	-0.08453634
-4.048557	dulhan	-0.08453634
-3.898959	dunga	-0.1971817
-3.787899	dungaa	-0.5145386
-3.563383	duniyaa	-0.1214362
-4.318119	duplicate	-0.08453634
-3.376361	dur	-0.1155512
-4.318119	durbaltaa	-0.08453634
-4.162994	durbhaagy	-0.08453633
-3.898959	durghatanaa	-0.08453634
-4.318119	durupyog	-0.08453632
-4.318119	dushman	-0.08453633
-4.318119	dushmano	-0.08453633
-4.318119	dusht	-0.08453634
-4.048557	dusraa	-0.08453632
-3.416116	dusre	-0.09687023
-4.048557	dusri	-0.08453634
-4.162994	dusro	-0.1361241
-3.699534	dvaar	-0.2763629
-4.318119	dvaaraa	-0.08453633
-4.318119	dvaare	-0.08453633
-4.318119	dwaaraa	-0.08453634
-4.318119	dweep	-0.08453634
-4.318119	dysentery	-0.08453634
-4.048557	early	-0.08453634
-4.318119	easiest	-0.08453633
-4.318119	easter	-0.08453634
-4.162994	easy	-0.08453634
-4.318119	ebanking	-0.08453634
-4.318119	economic	-0.08453634
-4.318119	ego	-0.08453634
-4.162994	ehsaan	-0.08453633
-4.318119	ehsaas	-0.08453633
-4.318119	eighty	-0.08453634
-4.318119	einak	-0.08453633
-3.046519	eisaa	-0.1198414
-3.275155	eise	-0.1156544
-4.162994	eisehi	-0.08453634
-3.508556	eisi	-0.1400056
-2.329195	ek	-0.1998537
-4.162994	ekaant	-0.08453633
-3.626145	ekdum	-0.08453634
-4.162994	ekkees	-0.08453634
-4.318119	eklautaa	-0.08453634
-4.318119	ekmaatr	-0.08453633
-4.318119	eksaath	-0.08453634
-4.318119	eksamaan	-0.08453634
-4.318119	ektarfaa	-0.08453633
-4.318119	ektees	-0.08453633
-4.318119	ekyaavan	-0.08453633
-4.318119	eleventh	-0.08453632
-4.318119	elite	-0.08453633
-4.318119	else	-0.08453633
-4.318119	embarrassment	-0.08453634
-4.318119	emotional	-0.08453633
-4.318119	empathy	-0.08453633
-4.318119	empowerment	-0.08453633
-4.318119	enact	-0.08453634
-4.318119	encourage	-0.08453633
-4.048557	end	-0.08453633
-4.318119	energy	-0.08453634
-3.898959	england	-0.08453633
-3.699534	english	-0.4066761
-4.162994	enjoy	-0.08453634
-4.318119	enjoying	-0.08453633
-4.318119	enroll	-0.08453632
-4.318119	enterprize	-0.08453634
-4.318119	entities	-0.08453634
-4.318119	entity	-0.08453634
-4.318119	entry	-0.08453634
-4.318119	epayment	-0.08453634
-4.318119	equality	-0.08453634
-4.318119	establish	-0.08453633
-4.318119	etched	-0.08453634
-3.787899	europe	-0.1253046
-4.318119	evam	-0.08453634
-4.048557	even	-0.08453633
-4.318119	events	-0.08453633
-4.318119	everest	-0.08453634
-3.898959	every	-0.08453633
-4.318119	everybody	-0.08453634
-4.318119	everybodys	-0.08453634
-4.318119	everyone	-0.08453634
-4.318119	everyones	-0.08453633
-4.162994	exactly	-0.08453633
-4.048557	exam	-0.08453634
-4.318119	excel	-0.08453633
-4.318119	exchange	-0.08453633
-4.318119	exclusive	-0.08453634
-4.318119	exhibition	-0.08453634
-4.048557	expect	-0.08453633
-4.318119	expectation	-0.08453633
-4.318119	experience	-0.08453633
-4.318119	explain	-0.08453633
-4.318119	exposure	-0.08453633
-4.318119	express	-0.08453634
-4.318119	expression	-0.08453634
-4.162994	extreme	-0.1946762
-4.162994	faaydaa	-0.08453632
-4.318119	faaydemand	-0.08453633
-4.318119	fabulous	-0.08453634
-4.318119	facebook	-0.08453633
-4.318119	faces	-0.08453634
-4.162994	fact	-0.08453633
-4.318119	factory	-0.08453634
-4.318119	failaa	-0.08453634
-4.318119	failaane	-0.08453633
-4.318119	failaati	-0.08453633
-4.318119	failaaye	-0.08453634
-4.162994	failaayi	-0.08453634
-4.318119	faile	-0.08453634
-4.318119	failed	-0.08453633
-4.318119	failti	-0.08453633
-4.318119	failure	-0.08453634
-3.898959	faisalaa	-0.08453633
-3.787899	faislaa	-0.1253046
-4.162994	faith	-0.1946762
-4.162994	faking	-0.1547779
-4.318119	familiar	-0.08453633
-3.898959	family	-0.08453633
-4.318119	fanas	-0.08453634
-4.318119	fans	-0.08453633
-4.318119	farishto	-0.08453633
-3.699534	fark	-0.2852292
-4.318119	farsh	-0.08453634
-4.318119	fascinating	-0.08453634
-4.318119	fat	-0.08453633
-4.162994	fataa	-0.08453633
-4.162994	fataafat	-0.08453633
-4.162994	father	-0.08453633
-4.318119	fathers	-0.08453633
-4.318119	fatkaa	-0.08453634
-4.318119	fatt	-0.08453633
-4.318119	fauhaaraa	-0.08453634
-4.318119	fauhaare	-0.08453633
-4.318119	fauran	-0.08453633
-4.048557	favorite	-0.08453634
-4.162994	favorites	-0.08453633
-4.318119	favour	-0.08453634
-4.318119	faà¤?s	-0.08453633
-4.318119	feature	-0.08453633
-4.048557	february	-0.08453632
-4.162994	fedral	-0.08453634
-3.787899	feel	-0.1132609
-4.048557	feeling	-0.08453634
-4.318119	fek	-0.08453634
-4.162994	feki	-0.08453634
-4.318119	feko	-0.08453634
-4.318119	fell	-0.08453634
-4.318119	felt	-0.08453633
-4.318119	fenk	-0.08453634
-4.162994	fer	-0.08453632
-4.318119	fertilizers	-0.08453634
-4.318119	festivals	-0.08453634
-4.162994	fidelity	-0.08453634
-4.318119	fifteen	-0.08453633
-4.048557	fifty	-0.1361241
-4.318119	fight	-0.08453633
-4.318119	fighting	-0.08453634
-3.064669	film	-0.1122381
-3.787899	filme	-0.1253046
-4.318119	filmmaker	-0.08453634
-3.787899	filmo	-0.1971817
-4.048557	films	-0.08453634
-4.162994	final	-0.08453634
-4.318119	finance	-0.08453634
-4.318119	find	-0.08453634
-4.318119	finland	-0.08453634
-3.246058	fir	-0.08453634
-4.318119	firnaa	-0.08453634
-3.306341	firse	-0.08453633
-3.563383	first	-0.2710542
-4.318119	fisdi	-0.08453634
-4.318119	fitting	-0.08453634
-3.898959	five	-0.08453633
-4.318119	flame	-0.08453634
-4.318119	flight	-0.08453634
-4.318119	fly	-0.08453634
-4.318119	fodder	-0.08453634
-4.318119	folder	-0.08453633
-4.318119	following	-0.08453633
-4.318119	foont	-0.08453633
-4.318119	foot	-0.08453634
-4.048557	football	-0.08453634
-3.339941	for	-0.1319308
-4.318119	force	-0.08453634
-4.318119	forces	-0.08453634
-4.318119	forearm	-0.08453634
-4.318119	foreign	-0.08453634
-4.162994	form	-0.08453634
-4.318119	formal	-0.08453634
-4.318119	forms	-0.08453634
-4.318119	forte	-0.08453634
-4.318119	forteen	-0.08453634
-4.318119	fortunately	-0.08453634
-4.318119	forty	-0.08453633
-4.318119	found	-0.08453634
-4.318119	fountain	-0.08453633
-4.318119	four	-0.08453634
-4.162994	fourty	-0.08453633
-3.699534	fraanseesi	-0.1182386
-4.162994	france	-0.08453634
-4.162994	fraternity	-0.08453634
-4.318119	fraud	-0.08453633
-4.318119	free	-0.08453634
-4.162994	freedom	-0.08453633
-4.162994	french	-0.08453633
-4.048557	friend	-0.08453634
-4.048557	friends	-0.08453634
-3.787899	from	-0.08453634
-4.318119	fulaa	-0.08453634
-4.318119	fulaae	-0.08453634
-3.699534	full	-0.08453632
-4.162994	fulo	-0.08453634
-4.318119	functions	-0.08453633
-4.318119	fundamental	-0.08453633
-4.162994	funny	-0.08453632
-4.318119	furniture	-0.08453634
-4.318119	fursat	-0.08453632
-4.318119	future	-0.08453634
-4.162994	fuut	-0.08453633
-4.318119	fybcom	-0.08453634
-4.162994	gaa	-0.08453633
-3.124168	gaadi	-0.1401618
-4.048557	gaadiyaan	-0.1547779
-4.162994	gaai	-0.08453633
-4.318119	gaajar	-0.08453634
-4.318119	gaal	-0.08453634
-4.318119	gaali	-0.08453634
-4.318119	gaaligalauj	-0.08453633
-4.318119	gaaliya	-0.08453633
-3.459882	gaanaa	-0.08453633
-4.162994	gaandhi	-0.08453634
-4.318119	gaandhivaadi	-0.08453633
-4.048557	gaane	-0.08453633
-3.787899	gaanv	-0.1762599
-4.318119	gaao	-0.08453634
-4.318119	gaataa	-0.08453633
-4.048557	gaate	-0.08453634
-4.318119	gaati	-0.08453633
-3.626145	gaav	-0.2574688
-4.318119	gaavwalo	-0.08453634
-4.318119	gaay	-0.08453633
-4.162994	gaayab	-0.08453632
-4.318119	gaddaa	-0.08453633
-4.318119	gade	-0.08453634
-4.318119	gadne	-0.08453633
-4.318119	gae	-0.08453634
-4.318119	gaharaai	-0.08453633
-4.318119	gai	-0.08453634
-4.318119	gairjimedaaraanaa	-0.08453633
-4.318119	galaa	-0.08453633
-3.275155	galat	-0.1397913
-4.162994	galatfaimi	-0.08453633
-4.048557	gale	-0.08453634
-4.318119	gali	-0.08453634
-4.318119	galileo	-0.08453633
-3.563383	galti	-0.1044423
-3.787899	galtiyaa	-0.08453633
-4.048557	galtiyo	-0.08453634
-4.318119	gamle	-0.08453633
-4.318119	gandagi	-0.08453634
-4.318119	gande	-0.08453633
-4.318119	gandhar	-0.08453633
-4.162994	ganit	-0.08453633
-4.318119	ganrajya	-0.08453633
-3.626145	gaon	-0.15145
-4.162994	gap	-0.08453633
-3.898959	garam	-0.1253046
-4.162994	garbh	-0.08453633
-4.162994	garbhaavasthaa	-0.08453634
-4.318119	garbhvati	-0.08453633
-3.563383	gareeb	-0.08453633
-4.162994	gareebo	-0.08453633
-4.318119	gariban	-0.08453634
-4.318119	garmaaye	-0.08453634
-3.787899	garmi	-0.1253046
-4.318119	garmiyaa	-0.08453633
-4.162994	garv	-0.08453633
-4.318119	gat	-0.08453633
-4.048557	gati	-0.08453634
-4.318119	gatividhiyo	-0.08453634
-4.318119	gaur	-0.08453634
-4.162994	gauri	-0.08453634
-4.318119	gauropur	-0.08453634
-4.318119	gauyen	-0.08453632
-4.162994	gave	-0.08453633
-4.318119	gawaah	-0.08453632
-4.318119	gawaao	-0.08453634
-2.605609	gayaa	-0.6378396
-4.318119	gayahu	-0.08453633
-2.777114	gaye	-0.6297018
-2.758404	gayi	-0.5953267
-4.318119	geeli	-0.08453633
-4.162994	geet	-0.08453632
-4.318119	gehraa	-0.08453633
-4.318119	gehre	-0.08453634
-4.162994	gehree	-0.08453634
-4.162994	gend	-0.08453634
-4.162994	generation	-0.08453633
-4.318119	gents	-0.08453634
-4.318119	george	-0.08453633
-4.162994	german	-0.08453632
-4.162994	germany	-0.08453633
-3.699534	get	-0.08453634
-4.318119	getting	-0.08453633
-4.318119	ggai	-0.08453634
-4.162994	ghaas	-0.08453633
-4.318119	ghaayal	-0.08453633
-4.318119	ghabraa	-0.08453633
-4.318119	ghadabdaao	-0.08453633
-3.563383	ghadi	-0.1044423
-4.318119	ghamand	-0.08453634
-4.318119	ghamandi	-0.08453634
-4.318119	ghanaspad	-0.08453634
-4.318119	ghantaa	-0.08453633
-3.699534	ghante	-0.08453633
-4.318119	ghanti	-0.08453634
-3.699534	ghanto	-0.1182386
-2.639068	ghar	-0.3089187
-4.318119	gharme	-0.08453634
-4.318119	gharpe	-0.08453633
-4.162994	gharwaale	-0.08453632
-4.318119	gharwaalo	-0.08453634
-4.318119	gharwaalon	-0.08453634
-4.318119	ghasite	-0.08453634
-4.318119	ghatiyaa	-0.08453634
-4.048557	ghatnaa	-0.08453633
-3.563383	ghee	-0.08453633
-4.318119	ghighiyaane	-0.08453633
-4.318119	ghinaunaa	-0.08453634
-4.162994	ghodaa	-0.08453634
-4.162994	ghode	-0.08453633
-4.318119	ghodo	-0.08453634
-4.318119	ghoonghat	-0.08453634
-4.318119	ghoonse	-0.08453634
-4.318119	ghoont	-0.08453634
-4.318119	ghoorelaal	-0.08453633
-4.318119	ghooremal	-0.08453634
-4.318119	ghoorkar	-0.08453634
-4.318119	ghor	-0.08453634
-4.318119	ghoshanaa	-0.08453634
-4.162994	ghosle	-0.08453634
-4.318119	ghrinaa	-0.08453632
-4.318119	ghudkiyo	-0.08453633
-4.318119	ghumaafiraakar	-0.08453634
-4.318119	ghumti	-0.08453633
-4.318119	ghurne	-0.08453634
-4.318119	ghus	-0.08453633
-4.162994	ghusaa	-0.1946762
-4.318119	ghusaanaa	-0.08453633
-4.318119	ghusaate	-0.08453634
-4.318119	gilhari	-0.08453633
-4.318119	gine	-0.08453634
-4.318119	ginti	-0.08453634
-3.898959	gir	-0.1361241
-4.318119	giraa	-0.08453634
-4.318119	giraavat	-0.08453634
-4.318119	giraayaa	-0.08453634
-4.048557	giraftaar	-0.08453634
-4.318119	giraftaaree	-0.08453633
-4.318119	girkar	-0.08453633
-4.318119	girls	-0.08453634
-4.318119	girni	-0.08453633
-3.787899	gitaar	-0.1971817
-3.898959	give	-0.08453633
-4.318119	given	-0.08453633
-4.318119	gives	-0.08453632
-4.162994	glaani	-0.08453634
-3.787899	glass	-0.08453634
-4.318119	glory	-0.08453633
-4.318119	gnfc	-0.08453634
-3.563383	go	-0.1095647
-4.318119	goals	-0.08453634
-4.318119	gobar	-0.08453633
-3.626145	god	-0.2561307
-4.318119	godaan	-0.08453634
-4.318119	godd	-0.08453633
-3.898959	goddess	-0.1971817
-4.318119	goes	-0.08453634
-3.787899	going	-0.1703002
-4.318119	gol	-0.08453634
-4.318119	golebaari	-0.08453634
-4.162994	goli	-0.08453633
-4.318119	goliyo	-0.08453633
-4.318119	gonna	-0.08453633
-4.318119	gopiyo	-0.08453634
-4.318119	gore	-0.08453634
-4.318119	gorgeous	-0.08453633
-4.318119	gospel	-0.08453634
-4.162994	government	-0.1946762
-4.162994	graahak	-0.08453632
-4.048557	graahako	-0.1946762
-4.318119	graamin	-0.08453634
-4.048557	great	-0.08453633
-4.162994	greek	-0.08453632
-4.318119	grew	-0.08453633
-4.048557	grihasthi	-0.08453633
-4.318119	gross	-0.08453634
-4.048557	group	-0.08453634
-4.318119	guddu	-0.08453634
-4.318119	gudgudaa	-0.08453634
-4.318119	gudgudaayaa	-0.08453634
-4.162994	gudiyaa	-0.08453633
-4.318119	gufaa	-0.08453634
-4.318119	gujar	-0.08453634
-4.318119	gujaraat	-0.08453634
-4.318119	gul	-0.08453634
-4.048557	gulaab	-0.08453634
-4.162994	gulaam	-0.08453633
-4.162994	gulaami	-0.08453632
-4.318119	guldaan	-0.08453634
-4.318119	gulmlatao	-0.08453634
-4.318119	gumaan	-0.08453634
-4.318119	gumraah	-0.08453633
-4.318119	gunaavattaa	-0.08453633
-4.318119	gungaan	-0.08453634
-4.318119	guno	-0.08453633
-4.318119	gunwati	-0.08453632
-4.318119	gurumani	-0.08453633
-3.787899	gussaa	-0.1253046
-4.318119	guy	-0.08453634
-4.048557	guzaaris	-0.08453634
-4.162994	guzar	-0.08453633
-4.318119	gv	-0.08453634
-4.318119	gyaapan	-0.08453634
-4.318119	gyaapano	-0.08453634
-3.699534	gyaaraa	-0.1182386
-4.318119	gyaat	-0.08453633
-4.162994	gym	-0.08453634
-4.318119	gymkhaane	-0.08453634
-3.508556	haa	-0.1341378
-4.318119	haadsaa	-0.08453633
-4.318119	haadse	-0.08453634
-4.318119	haafiz	-0.08453634
-4.048557	haal	-0.08453634
-4.318119	haalaa	-0.08453634
-4.048557	haalaaki	-0.08453634
-3.898959	haalat	-0.1361241
-4.048557	haan	-0.08453633
-4.162994	haandi	-0.1946762
-4.318119	haani	-0.08453633
-4.162994	haanikaarak	-0.08453634
-4.048557	haar	-0.08453633
-4.318119	haaraa	-0.08453634
-4.318119	haardik	-0.08453634
-4.318119	haare	-0.08453634
-4.162994	haari	-0.08453634
-4.318119	haarne	-0.08453634
-4.318119	haarti	-0.08453632
-3.275155	haath	-0.1088274
-4.318119	haathaapaayi	-0.08453633
-4.162994	haathi	-0.08453633
-3.339941	had	-0.1187377
-4.318119	hadbadi	-0.08453634
-4.318119	hadd	-0.08453633
-4.318119	haddi	-0.08453634
-4.162994	hadtaal	-0.1946762
-3.626145	hafeez	-0.08453634
-4.162994	haftaa	-0.08453634
-3.459882	hafte	-0.1627432
-4.318119	hafto	-0.08453634
-4.318119	hagegi	-0.08453634
-1.596612	hai	-0.6927475
-4.318119	hainaa	-0.08453634
-4.048557	hairaan	-0.1361241
-4.162994	hakdaar	-0.08453633
-4.318119	hakim	-0.08453634
-4.318119	hakkaa	-0.08453633
-4.318119	haklaa	-0.08453634
-4.318119	hal	-0.08453634
-4.318119	half	-0.08453633
-4.318119	halkaa	-0.08453634
-4.162994	halke	-0.1946762
-4.318119	halki	-0.08453633
-4.318119	hall	-0.08453633
-4.318119	halls	-0.08453634
-2.885081	ham	-0.1138213
-3.376361	hamaaraa	-0.09613494
-3.046519	hamaare	-0.1858868
-3.459882	hamaari	-0.09390166
-4.318119	hamdardi	-0.08453634
-3.193132	hame	-0.08453633
-3.193132	hameshaa	-0.1037857
-3.508556	hamko	-0.08453634
-4.318119	hamlaa	-0.08453632
-3.459882	hamlog	-0.1112856
-4.318119	hamlogo	-0.08453633
-3.787899	hamne	-0.09271988
-3.787899	hamse	-0.1253046
-4.162994	handle	-0.08453633
-4.318119	hands	-0.08453634
-4.318119	happen	-0.08453634
-4.162994	happened	-0.08453633
-4.318119	happens	-0.08453633
-3.168907	har	-0.1479671
-4.162994	haraa	-0.08453632
-4.318119	haraayaa	-0.08453634
-4.162994	hard	-0.08453634
-4.318119	hare	-0.08453633
-4.318119	harihar	-0.08453634
-4.318119	harsh	-0.08453633
-3.898959	has	-0.08453633
-4.318119	hase	-0.08453633
-4.162994	haseenaa	-0.08453633
-4.048557	hasi	-0.1547779
-4.048557	haskar	-0.08453634
-4.318119	haske	-0.08453634
-4.318119	haso	-0.08453634
-4.162994	hasrat	-0.1946762
-4.318119	hass	-0.08453634
-4.048557	hastaakshar	-0.08453634
-4.318119	hasti	-0.08453633
-4.318119	hataa	-0.08453634
-4.318119	hataane	-0.08453634
-4.318119	hataani	-0.08453633
-4.048557	hate	-0.1547779
-4.318119	hated	-0.08453634
-4.318119	hatt	-0.08453634
-4.318119	hatyaaeà¤?	-0.08453633
-4.318119	hatyaare	-0.08453634
-3.699534	havaa	-0.08453633
-4.048557	havaai	-0.08453634
-3.275155	have	-0.154765
-4.318119	having	-0.08453633
-4.318119	hawaaiaddaa	-0.08453634
-4.318119	hawaaijahaaz	-0.08453633
-3.416116	hazaar	-0.1130114
-3.787899	hazaaro	-0.1182386
-4.318119	hazrat	-0.08453633
-4.318119	haà¤?s	-0.08453633
-4.318119	haà¤?saa	-0.08453634
-4.162994	haà¤?se	-0.1946762
-2.99622	he	-0.1195579
-4.048557	head	-0.08453633
-2.965657	hee	-0.09613492
-4.162994	heera	-0.08453632
-4.318119	heeraa	-0.08453633
-3.898959	heere	-0.08453634
-4.318119	hell	-0.08453634
-4.318119	helmet	-0.08453633
-4.048557	help	-0.08453634
-4.162994	her	-0.08453633
-4.318119	hereby	-0.08453633
-3.416116	hero	-0.1182386
-3.699534	heroine	-0.08453634
-3.898959	hes	-0.08453634
-2.605609	hi	-0.1714276
-4.162994	hichkichaahat	-0.08453634
-4.318119	hichkichaayaa	-0.08453634
-4.162994	hifaajat	-0.08453633
-2.838627	hii	-0.1194316
-4.318119	hil	-0.08453634
-4.162994	hilaa	-0.08453633
-4.318119	hilo	-0.08453633
-4.318119	hilte	-0.08453634
-3.626145	him	-0.1440207
-4.162994	himmat	-0.08453634
-3.898959	hindi	-0.08453633
-4.162994	hindustaan	-0.08453634
-4.318119	hindustaani	-0.08453633
-4.318119	hiraasat	-0.08453634
-4.162994	hiran	-0.08453634
-3.787899	his	-0.1253046
-3.787899	hisaab	-0.1253046
-4.318119	hissa	-0.08453633
-4.318119	hissaa	-0.08453633
-4.162994	hisse	-0.08453633
-4.162994	hisso	-0.08453634
-4.318119	history	-0.08453634
-3.898959	hit	-0.1361241
-4.318119	hitler	-0.08453634
-2.095157	ho	-0.5890142
-4.318119	hobbies	-0.08453633
-4.318119	hoegi	-0.08453634
-2.758404	hogaa	-0.5433454
-4.318119	hogayaa	-0.08453634
-3.21879	hoge	-0.5472606
-3.21879	hogi	-0.5036325
-4.318119	hoi	-0.08453634
-3.626145	hokar	-0.1095647
-4.318119	hokkaaido	-0.08453634
-4.318119	hole	-0.08453634
-4.318119	home	-0.08453634
-3.787899	homework	-0.1182386
-4.318119	homo	-0.08453634
-3.416116	honaa	-0.1279811
-2.99622	hone	-0.2945725
-4.318119	hongi	-0.08453634
-4.318119	hongkong	-0.08453633
-4.048557	honi	-0.08453634
-4.318119	honor	-0.08453634
-4.318119	honour	-0.08453633
-2.81714	hoo	-0.3927464
-4.162994	hoongi	-0.08453633
-3.787899	horahaa	-0.2507952
-3.787899	horahi	-0.3274949
-4.048557	hospital	-0.1547779
-4.162994	host	-0.08453633
-4.318119	hot	-0.08453633
-2.796666	hotaa	-0.62422
-3.168907	hote	-0.4459248
-4.162994	hotel	-0.08453634
-2.838627	hoti	-0.6429942
-4.318119	hows	-0.08453633
-3.898959	hriday	-0.1361241
-2.580582	hu	-0.7233629
-2.675321	huaa	-0.5163567
-2.827751	hue	-0.2290085
-4.162994	hueà¤?	-0.1946762
-2.698621	hui	-0.4575701
-4.318119	hukke	-0.08453633
-4.162994	hukm	-0.08453634
-4.318119	hukumat	-0.08453632
-4.318119	hundred	-0.08453634
-4.162994	hungaa	-0.08453633
-4.048557	husband	-0.08453633
-4.318119	husbands	-0.08453634
-3.459882	huve	-0.1411325
-4.318119	hymen	-0.08453634
-2.574544	i	-0.3560067
-4.318119	icard	-0.08453634
-4.048557	ichhaa	-0.08453634
-4.162994	ideas	-0.08453634
-3.787899	idhar	-0.08453634
-3.508556	if	-0.24836
-4.318119	ifraat	-0.08453634
-4.048557	iishvar	-0.08453634
-4.318119	ikkees	-0.08453633
-4.048557	ilaaz	-0.08453634
-4.318119	ilzaam	-0.08453634
-4.318119	imaandaar	-0.08453633
-4.318119	imaandaari	-0.08453633
-4.318119	imaarato	-0.08453634
-4.318119	imagine	-0.08453634
-4.318119	immediately	-0.08453634
-4.318119	impartial	-0.08453633
-4.318119	important	-0.08453633
-4.162994	impress	-0.08453632
-2.767658	in	-0.319009
-3.376361	inaam	-0.1329138
-4.318119	inaami	-0.08453633
-4.048557	inappropriate	-0.08453634
-4.318119	incident	-0.08453634
-4.318119	includes	-0.08453634
-4.318119	income	-0.08453633
-4.048557	independent	-0.08453634
-4.318119	indhan	-0.08453632
-3.563383	india	-0.1434853
-4.318119	indian	-0.08453634
-4.318119	individuals	-0.08453634
-4.318119	indradhanush	-0.08453634
-4.162994	indulgence	-0.08453634
-3.898959	industry	-0.1361241
-4.048557	infidelity	-0.08453632
-4.318119	inflation	-0.08453633
-4.162994	informal	-0.08453633
-4.318119	information	-0.08453633
-4.162994	inhi	-0.08453633
-4.162994	inhone	-0.08453634
-4.318119	initiative	-0.08453633
-4.318119	inka	-0.08453633
-3.898959	inkaar	-0.1971817
-4.318119	inkalaam	-0.08453634
-4.048557	inke	-0.08453634
-4.318119	inki	-0.08453633
-4.162994	inme	-0.1946762
-3.626145	innn	-0.08453633
-4.162994	insaaf	-0.08453633
-3.416116	insaan	-0.09976694
-4.318119	inse	-0.08453634
-4.318119	insecurity	-0.08453634
-4.318119	insensitive	-0.08453634
-4.318119	insight	-0.08453633
-4.318119	instead	-0.08453634
-4.318119	instinct	-0.08453634
-4.318119	insurance	-0.08453633
-4.318119	intajaam	-0.08453632
-4.318119	interested	-0.08453634
-4.048557	interesting	-0.08453634
-3.787899	interview	-0.1253046
-3.626145	intezaar	-0.1067114
-3.787899	into	-0.1703002
-4.318119	invariably	-0.08453633
-4.318119	investment	-0.08453634
-4.318119	invoked	-0.08453634
-4.318119	iodine	-0.08453634
-4.318119	iraadaa	-0.08453633
-4.318119	iraade	-0.08453633
-4.318119	irreverent	-0.08453633
-2.660455	is	-0.1725351
-4.318119	isa	-0.08453633
-3.563383	ise	-0.1025945
-4.162994	ishaaraa	-0.08453633
-3.699534	ishvar	-0.08453633
-3.787899	isi	-0.08453634
-3.699534	isiliye	-0.2763629
-3.626145	iskaa	-0.08453634
-3.416116	iske	-0.2491702
-4.048557	iski	-0.08453634
-4.162994	isko	-0.08453632
-3.459882	isliye	-0.1271922
-4.048557	isme	-0.08453633
-2.937105	iss	-0.1088013
-3.699534	isse	-0.1044423
-4.318119	isskaa	-0.08453634
-4.318119	issues	-0.08453634
-4.318119	istamaal	-0.08453634
-3.626145	istemaal	-0.2001482
-2.81714	it	-0.2593558
-4.048557	italy	-0.08453634
-4.318119	item	-0.08453634
-4.318119	itiadi	-0.08453634
-4.048557	itihaas	-0.08453634
-3.103416	itnaa	-0.09866115
-3.376361	itne	-0.1010606
-3.306341	itni	-0.1055157
-3.21879	its	-0.1491754
-4.318119	ittefaak	-0.08453634
-4.318119	ive	-0.08453634
-4.318119	izzat	-0.08453634
-2.923503	jaa	-0.3879712
-4.162994	jaach	-0.1946762
-4.318119	jaachti	-0.08453634
-4.318119	jaachukaa	-0.08453633
-3.376361	jaaegaa	-0.5773929
-4.162994	jaaege	-0.08453633
-3.699534	jaaegi	-0.4066761
-4.162994	jaaeà¤?g	-0.1946762
-4.162994	jaaeà¤?gkyaa	-0.1946762
-4.318119	jaag	-0.08453633
-4.318119	jaage	-0.08453634
-4.318119	jaagkar	-0.08453633
-4.318119	jaagnaa	-0.08453634
-4.318119	jaahir	-0.08453633
-4.318119	jaaiye	-0.08453634
-3.563383	jaakar	-0.08453634
-4.318119	jaake	-0.08453634
-4.318119	jaam	-0.08453634
-4.162994	jaame	-0.08453633
-3.459882	jaan	-0.09976695
-4.048557	jaana	-0.08453633
-3.064669	jaanaa	-0.2409603
-4.318119	jaanbujkar	-0.08453633
-4.318119	jaanch	-0.08453633
-4.318119	jaanchne	-0.08453633
-2.861233	jaane	-0.2566679
-4.318119	jaanemaane	-0.08453633
-3.898959	jaankari	-0.1361241
-4.048557	jaannaa	-0.08453634
-4.162994	jaanne	-0.08453634
-4.162994	jaanta	-0.08453633
-3.626145	jaantaa	-0.1964643
-3.563383	jaante	-0.3011987
-4.048557	jaanti	-0.1547779
-3.898959	jaanwar	-0.08453634
-4.318119	jaanwaro	-0.08453633
-3.376361	jaao	-0.6121551
-3.699534	jaaoge	-0.2182824
-4.318119	jaaogi	-0.08453634
-4.318119	jaaongi	-0.08453634
-4.162994	jaaoo	-0.1946762
-4.318119	jaaoogi	-0.08453634
-4.318119	jaapaan	-0.08453634
-3.898959	jaapaani	-0.1361241
-4.318119	jaapaaniyo	-0.08453633
-4.318119	jaarahaa	-0.08453633
-4.318119	jaarahe	-0.08453633
-4.318119	jaaree	-0.08453634
-4.048557	jaari	-0.1547779
-4.318119	jaasakegi	-0.08453634
-4.318119	jaat	-0.08453633
-3.376361	jaata	-0.3508046
-3.21879	jaataa	-0.5455264
-3.168907	jaate	-0.4215643
-3.012347	jaati	-0.4922166
-4.318119	jaatiyo	-0.08453633
-3.898959	jaau	-0.1361241
-3.459882	jaaugaa	-0.6285248
-3.898959	jaaungi	-0.4176287
-4.162994	jaayaa	-0.08453633
-4.162994	jaaydaad	-0.08453634
-3.103416	jaaye	-0.6033729
-4.162994	jaayegaa	-0.1946762
-4.048557	jaayege	-0.1547779
-4.162994	jaayegi	-0.08453633
-3.012347	jab	-0.146534
-4.318119	jabardast	-0.08453633
-4.318119	jabki	-0.08453634
-4.318119	jabtak	-0.08453633
-4.318119	jachegaa	-0.08453634
-4.318119	jacket	-0.08453634
-4.318119	jadoo	-0.08453634
-4.318119	jagaane	-0.08453633
-3.563383	jagah	-0.08453634
-4.318119	jage	-0.08453634
-4.162994	jageh	-0.08453633
-4.318119	jagmagaahat	-0.08453634
-4.162994	jagmagaate	-0.08453632
-4.318119	jagmagah	-0.08453634
-4.318119	jagrook	-0.08453634
-3.898959	jahaa	-0.08453633
-3.699534	jahaan	-0.1807913
-4.048557	jahaaz	-0.08453634
-4.048557	jaidev	-0.1182386
-4.318119	jail	-0.08453634
-4.318119	jaisa	-0.08453634
-3.626145	jaisaa	-0.1253046
-3.103416	jaise	-0.1015421
-3.787899	jaisi	-0.08453634
-4.048557	jal	-0.08453633
-4.162994	jalaa	-0.08453633
-4.162994	jalaakar	-0.08453633
-4.318119	jalaanaa	-0.08453633
-4.318119	jalaanehi	-0.08453634
-4.162994	jalaate	-0.08453634
-4.318119	jalaati	-0.08453633
-4.318119	jalan	-0.08453632
-3.416116	jald	-0.2313836
-4.048557	jaldbaazi	-0.2926899
-3.145962	jaldi	-0.1279811
-4.318119	jale	-0.08453634
-4.318119	jalenge	-0.08453634
-4.318119	jalsaa	-0.08453632
-4.318119	jaltaa	-0.08453632
-4.162994	jalte	-0.1946762
-3.787899	jamaa	-0.08453634
-4.318119	jamaane	-0.08453633
-4.318119	jamin	-0.08453634
-4.318119	jan	-0.08453634
-4.318119	janaab	-0.08453633
-4.318119	janaardan	-0.08453634
-4.318119	janamaanas	-0.08453634
-3.626145	janamdin	-0.1597579
-4.318119	jandhan	-0.08453634
-4.048557	jang	-0.08453634
-4.318119	jangali	-0.08453634
-4.318119	janjaal	-0.08453634
-4.318119	janjaateey	-0.08453634
-3.563383	janm	-0.13008
-4.318119	janmaastmi	-0.08453634
-4.318119	janmdin	-0.08453634
-4.318119	janmotsav	-0.08453633
-4.318119	jansankhyaa	-0.08453634
-3.508556	jantaa	-0.1253046
-4.318119	jantanraa	-0.08453634
-4.162994	january	-0.08453633
-3.626145	japan	-0.1689805
-4.162994	jaroor	-0.08453634
-4.318119	jaroorat	-0.08453634
-3.626145	jarur	-0.08453634
-3.898959	jarurat	-0.1971817
-4.318119	jaruratmando	-0.08453634
-3.508556	jaruri	-0.4524542
-4.318119	jataayi	-0.08453634
-4.318119	jathaa	-0.08453633
-3.898959	javaan	-0.08453634
-3.193132	jawaab	-0.1529345
-4.318119	jawaaharlaal	-0.08453634
-4.162994	jawaan	-0.08453634
-4.318119	jawaani	-0.08453634
-3.563383	jayaada	-0.1095647
-3.898959	jayanti	-0.1361241
-4.318119	jeans	-0.08453633
-4.318119	jeb	-0.08453633
-4.048557	jee	-0.1361241
-4.318119	jeebh	-0.08453634
-3.787899	jeel	-0.08453634
-4.162994	jeenaa	-0.1946762
-4.318119	jeene	-0.08453634
-3.626145	jeet	-0.08453634
-4.162994	jeetaa	-0.08453633
-4.318119	jeetegaa	-0.08453633
-4.318119	jeetege	-0.08453634
-4.318119	jeeti	-0.08453633
-3.193132	jeevan	-0.3129957
-4.318119	jeevit	-0.08453634
-4.318119	jeew	-0.08453634
-4.162994	jese	-0.08453633
-4.048557	jesus	-0.1547779
-4.318119	jeth	-0.08453634
-4.318119	jeyongyonsukh	-0.08453634
-4.318119	jhaad	-0.08453633
-4.048557	jhaanki	-0.1547779
-4.318119	jhaankiyaa	-0.08453633
-4.318119	jhaarkhand	-0.08453633
-4.318119	jhagadne	-0.08453634
-4.162994	jhagdaa	-0.08453633
-4.162994	jhalak	-0.08453634
-4.318119	jhanjhat	-0.08453633
-4.318119	jhanjhodaa	-0.08453634
-4.318119	jhapak	-0.08453634
-4.318119	jhapki	-0.08453634
-4.318119	jhelaa	-0.08453634
-4.318119	jhelne	-0.08453633
-4.318119	jhelni	-0.08453634
-4.162994	jhelti	-0.1946762
-4.318119	jhidaki	-0.08453634
-4.318119	jhukaakar	-0.08453633
-4.318119	jhuki	-0.08453634
-4.318119	jhuknaa	-0.08453634
-4.318119	jhulti	-0.08453633
-4.318119	jhunjhalaahat	-0.08453634
-4.318119	jhunjhalaati	-0.08453632
-4.162994	jhut	-0.08453633
-2.99622	ji	-0.1995372
-4.318119	jigyaasaa	-0.08453634
-3.626145	jii	-0.1523551
-4.318119	jilataa	-0.08453634
-4.318119	jille	-0.08453634
-3.898959	jimmedaari	-0.1132609
-4.048557	jin	-0.08453633
-4.162994	jindaa	-0.08453633
-4.318119	jindagi	-0.08453633
-4.162994	jinhe	-0.08453633
-4.162994	jinhone	-0.08453634
-4.162994	jinkaa	-0.08453634
-4.048557	jinke	-0.08453633
-4.318119	jinki	-0.08453633
-4.318119	jinko	-0.08453633
-4.318119	jinme	-0.08453633
-3.626145	jis	-0.1025945
-3.699534	jise	-0.1132609
-4.162994	jiskaa	-0.08453634
-3.898959	jiske	-0.08453634
-4.162994	jiski	-0.08453634
-4.318119	jisko	-0.08453634
-4.048557	jisme	-0.08453633
-3.898959	jisne	-0.08453633
-4.318119	jispar	-0.08453633
-4.318119	jispe	-0.08453633
-3.898959	jisse	-0.08453634
-3.508556	jitnaa	-0.1279811
-4.048557	jitne	-0.08453633
-3.787899	jitni	-0.08453632
-4.318119	jiungaa	-0.08453633
-2.625373	jo	-0.1447751
-4.318119	jod	-0.08453633
-4.318119	jodaa	-0.08453634
-4.318119	jode	-0.08453634
-4.318119	jodkar	-0.08453633
-4.318119	jodne	-0.08453633
-4.318119	johar	-0.08453633
-4.318119	join	-0.08453634
-4.048557	joke	-0.08453634
-4.318119	jokhim	-0.08453634
-4.318119	joki	-0.08453634
-4.318119	jon	-0.08453634
-4.318119	jooto	-0.08453634
-4.318119	jor	-0.08453633
-4.318119	jowar	-0.08453633
-4.318119	judanaa	-0.08453633
-4.318119	jude	-0.08453634
-4.318119	judge	-0.08453634
-4.318119	judgemental	-0.08453633
-4.318119	judges	-0.08453633
-4.318119	judi	-0.08453634
-4.162994	judwaa	-0.08453634
-4.048557	jukaam	-0.1547779
-4.318119	june	-0.08453633
-3.787899	jungle	-0.276363
-4.318119	jurm	-0.08453634
-4.318119	jurmaanaa	-0.08453634
-4.318119	jurrat	-0.08453634
-3.275155	just	-0.09613492
-4.318119	justice	-0.08453634
-4.318119	jutaane	-0.08453634
-3.699534	jute	-0.08453633
-4.318119	juth	-0.08453633
-4.318119	juthi	-0.08453633
-4.318119	juti	-0.08453633
-4.318119	juto	-0.08453634
-4.318119	juà¤?k	-0.08453634
-4.318119	jvar	-0.08453632
-4.318119	jwaalaa	-0.08453634
-3.898959	jyaadaa	-0.08453634
-4.162994	jyaadaatar	-0.08453634
-4.318119	jyaadati	-0.08453634
-4.318119	jyadaa	-0.08453633
-4.318119	jyadaatar	-0.08453634
-4.318119	jyon	-0.08453634
-4.318119	jyoti	-0.08453632
-3.275155	k	-0.1994146
-1.98356	kaa	-0.1994283
-4.318119	kaabaadi	-0.08453634
-4.318119	kaabilegaur	-0.08453634
-4.162994	kaabu	-0.1946762
-3.898959	kaadat	-0.1361241
-3.306341	kaafi	-0.1332098
-4.162994	kaag	-0.08453633
-4.318119	kaagaz	-0.08453633
-4.318119	kaajal	-0.08453633
-4.318119	kaakaar	-0.08453633
-4.162994	kaal	-0.08453634
-4.162994	kaalaa	-0.08453633
-4.048557	kaale	-0.1547779
-4.318119	kaali	-0.08453633
-2.605609	kaam	-0.2990112
-4.048557	kaamant	-0.2305849
-3.787899	kaamayaab	-0.1253046
-4.048557	kaamayaabi	-0.08453634
-4.318119	kaamo	-0.08453633
-4.318119	kaamrup	-0.08453634
-4.162994	kaan	-0.08453634
-4.162994	kaane	-0.08453631
-4.318119	kaantiheen	-0.08453634
-3.898959	kaanun	-0.08453633
-4.318119	kaanuni	-0.08453634
-3.699534	kaaran	-0.08453634
-4.162994	kaarigar	-0.08453634
-3.699534	kaarobaar	-0.1440207
-4.318119	kaarya	-0.08453634
-4.318119	kaaryaa	-0.08453633
-4.318119	kaaryaakarm	-0.08453634
-4.162994	kaaryaakartaa	-0.1946762
-4.162994	kaaryakram	-0.08453633
-4.162994	kaaryo	-0.08453633
-4.318119	kaas	-0.08453633
-4.318119	kaash	-0.08453633
-4.318119	kaashaa	-0.08453634
-3.563383	kaat	-0.1361241
-4.318119	kaatate	-0.08453634
-4.318119	kaate	-0.08453634
-4.318119	kaath	-0.08453634
-4.318119	kaatke	-0.08453633
-4.318119	kaatne	-0.08453633
-4.318119	kaatoge	-0.08453634
-4.048557	kaawaaz	-0.1547779
-4.318119	kaayal	-0.08453634
-4.318119	kaazaadi	-0.08453633
-4.318119	kaaà¤?khe	-0.08453633
-4.318119	kaaà¤?kho	-0.08453634
-3.168907	kab	-0.1055157
-4.318119	kabaar	-0.08453633
-4.318119	kabase	-0.08453633
-4.318119	kabhaar	-0.08453634
-2.706674	kabhi	-0.2427101
-4.318119	kabhilaashaa	-0.08453633
-4.318119	kabr	-0.08453633
-4.318119	kabristaan	-0.08453634
-4.318119	kabul	-0.08453634
-4.318119	kabutaro	-0.08453634
-4.318119	kac	-0.08453634
-4.318119	kachchhaa	-0.08453633
-4.318119	kachchhe	-0.08453634
-4.162994	kachchhi	-0.08453633
-4.162994	kadaachit	-0.08453634
-4.318119	kadaapi	-0.08453634
-3.898959	kadam	-0.1361241
-4.318119	kadawaa	-0.08453633
-4.318119	kaddu	-0.08453633
-4.318119	kadhaai	-0.08453634
-4.318119	kadhikaansh	-0.08453633
-4.162994	kadi	-0.08453632
-4.162994	kadvi	-0.08453633
-3.339941	kah	-0.1880351
-3.046519	kaha	-0.2781691
-3.193132	kahaa	-0.2075678
-3.193132	kahaan	-0.257085
-3.416116	kahaani	-0.1025945
-4.048557	kahaaniyaa	-0.08453633
-4.162994	kahaawat	-0.08453634
-3.699534	kahanaa	-0.08453633
-4.318119	kahar	-0.08453634
-4.318119	kahataa	-0.08453633
-4.318119	kahate	-0.08453633
-3.898959	kahe	-0.1361241
-4.318119	kahegaa	-0.08453634
-4.318119	kahege	-0.08453634
-3.168907	kahi	-0.1025945
-4.318119	kahipe	-0.08453634
-4.318119	kahiye	-0.08453633
-4.318119	kahke	-0.08453634
-3.898959	kahne	-0.08453633
-4.318119	kahni	-0.08453633
-3.898959	kaho	-0.1361241
-4.318119	kahoge	-0.08453634
-4.048557	kahte	-0.2926899
-3.787899	kahu	-0.276363
-4.162994	kahungaa	-0.08453634
-3.508556	kai	-0.214738
-4.318119	kaichiyo	-0.08453634
-4.318119	kaidi	-0.08453634
-4.318119	kaidiyo	-0.08453633
-4.162994	kaifa	-0.08453633
-3.563383	kaisaa	-0.1214362
-2.885081	kaise	-0.116787
-3.376361	kaisi	-0.1319308
-4.162994	kajri	-0.08453634
-4.318119	kakelaa	-0.08453634
-4.162994	kaksar	-0.08453633
-4.318119	kakshaa	-0.08453634
-2.849783	kal	-0.1428307
-4.048557	kalaa	-0.08453633
-4.318119	kalaakaar	-0.08453633
-4.318119	kalaakaaro	-0.08453634
-4.162994	kalaavaa	-0.1946762
-4.318119	kalah	-0.08453634
-4.318119	kalakattaa	-0.08453634
-4.162994	kalam	-0.08453634
-4.318119	kalank	-0.08453634
-4.048557	kalpanaa	-0.08453634
-4.318119	kalyaan	-0.08453634
-3.124168	kam	-0.1682439
-4.162994	kamaa	-0.08453633
-4.318119	kamaai	-0.08453634
-4.318119	kamaanewaalaa	-0.08453634
-4.162994	kamaataa	-0.08453634
-4.318119	kamaayege	-0.08453634
-4.318119	kamakhaya	-0.08453632
-4.318119	kamal	-0.08453633
-4.318119	kamar	-0.08453633
-4.318119	kambal	-0.08453634
-3.898959	kamee	-0.08453633
-4.162994	kameez	-0.08453632
-4.318119	kameeze	-0.08453633
-3.898959	kamiyaa	-0.08453633
-3.699534	kamlaa	-0.08453634
-4.318119	kampan	-0.08453632
-4.318119	kampaniyaan	-0.08453634
-3.626145	kamraa	-0.1025945
-3.376361	kamre	-0.2491702
-4.318119	kamzoor	-0.08453634
-4.162994	kamzoori	-0.08453633
-4.318119	kanadekhaa	-0.08453632
-4.318119	kanahoni	-0.08453634
-4.318119	kandekhaa	-0.08453632
-4.318119	kandhaa	-0.08453633
-4.162994	kandhe	-0.08453633
-4.318119	kangrezi	-0.08453633
-4.162994	kanjus	-0.08453634
-3.898959	kanth	-0.09613492
-4.318119	kanuwaado	-0.08453634
-4.048557	kap	-0.1946762
-4.162994	kapdaa	-0.08453633
-3.508556	kapde	-0.1044423
-4.162994	kapdo	-0.08453633
-4.318119	kapnaa	-0.08453633
-3.699534	kapne	-0.08453633
-4.048557	kapni	-0.08453634
-4.318119	kapo	-0.08453634
-4.318119	kapolo	-0.08453634
-4.318119	kapoor	-0.08453633
-4.318119	kapti	-0.08453633
-2.262946	kar	-0.3713548
-4.318119	karaa	-0.08453633
-4.318119	karaadiyaa	-0.08453634
-4.318119	karaamat	-0.08453633
-4.318119	karaane	-0.08453634
-4.318119	karaaraa	-0.08453633
-4.318119	karaati	-0.08453633
-4.162994	karaayaa	-0.08453634
-4.318119	karaayi	-0.08453633
-4.318119	karade	-0.08453634
-4.318119	karadi	-0.08453634
-4.162994	karan	-0.08453634
-4.048557	kardo	-0.1547779
-4.318119	kardoge	-0.08453634
-3.376361	kare	-0.512052
-4.318119	kareeb	-0.08453634
-4.162994	karegaa	-0.08453633
-3.508556	karege	-0.4524542
-3.787899	karegi	-0.5145386
-3.626145	karenge	-0.2026025
-3.275155	kari	-0.5019153
-3.246058	karke	-0.1095647
-4.318119	karle	-0.08453634
-4.318119	karm	-0.08453633
-3.898959	karmachaariyo	-0.08453634
-2.653208	karnaa	-0.3274699
-2.551199	karne	-0.3733007
-3.376361	karni	-0.2364295
-3.064669	karo	-0.4801636
-4.318119	karodo	-0.08453633
-3.898959	karoge	-0.3274949
-4.318119	karogi	-0.08453634
-2.910314	kartaa	-0.5080216
-2.758404	karte	-0.6124113
-3.064669	karti	-0.4286783
-4.162994	karu	-0.08453633
-3.626145	karugi	-0.1132609
-4.318119	karunaa	-0.08453633
-4.318119	karunbhari	-0.08453633
-3.898959	karungaa	-0.3274949
-4.318119	karungi	-0.08453634
-4.318119	karvaanaa	-0.08453634
-4.162994	karvaate	-0.08453634
-3.898959	karvaayaa	-0.1253046
-4.318119	karwaa	-0.08453633
-4.318119	karwaai	-0.08453634
-3.898959	karz	-0.08453633
-4.318119	kasam	-0.08453633
-3.699534	kasht	-0.08453633
-4.318119	kasweekaar	-0.08453634
-4.162994	kathin	-0.08453633
-4.318119	kathinaayi	-0.08453633
-4.048557	kathor	-0.08453633
-4.318119	kathore	-0.08453634
-4.162994	katl	-0.08453632
-4.318119	katoriyaa	-0.08453633
-4.318119	katu	-0.08453634
-4.318119	katvaanaa	-0.08453634
-4.318119	katvaataa	-0.08453633
-4.162994	kauaa	-0.08453634
-4.318119	kaudi	-0.08453634
-3.275155	kaun	-0.1612385
-3.699534	kaunsaa	-0.1762599
-4.048557	kaunse	-0.08453634
-3.787899	kaunsi	-0.08453634
-4.318119	kaupi	-0.08453634
-4.162994	kaur	-0.08453631
-4.318119	kaurato	-0.08453633
-4.318119	kaushalya	-0.08453633
-4.318119	kauwe	-0.08453634
-4.162994	kavitaa	-0.08453634
-4.318119	kawi	-0.08453633
-4.048557	kayi	-0.08453633
-4.318119	kayiyo	-0.08453633
-4.318119	kbaabu	-0.08453633
-3.787899	kbaad	-0.08453634
-4.318119	kbaadh	-0.08453633
-4.048557	kbaahar	-0.08453633
-4.318119	kbaal	-0.08453634
-4.318119	kbaaraha	-0.08453634
-3.416116	kbaare	-0.8569614
-4.318119	kbaarish	-0.08453634
-3.626145	kbaat	-0.1132609
-4.318119	kbaazi	-0.08453634
-4.162994	kbachche	-0.08453633
-4.318119	kbachcho	-0.08453634
-4.318119	kbadhaa	-0.08453633
-4.318119	kbadhaaiyaan	-0.08453634
-4.162994	kbahut	-0.08453633
-3.699534	kbajaaye	-0.08453634
-4.162994	kbandd	-0.08453632
-4.318119	kbani	-0.08453633
-4.162994	kbarbaadi	-0.08453633
-4.318119	kbardaasht	-0.08453634
-4.318119	kbartaaw	-0.08453634
-4.318119	kbartan	-0.08453633
-4.318119	kbas	-0.08453634
-4.318119	kbasketball	-0.08453633
-4.318119	kbattar	-0.08453634
-3.898959	kbeech	-0.08453633
-4.318119	kbeemari	-0.08453633
-4.048557	kbhaarat	-0.08453633
-4.318119	kbhaashaa	-0.08453633
-3.787899	kbhi	-0.08453633
-4.318119	kbhrashtaachaar	-0.08453634
-4.318119	kbhujaanaa	-0.08453633
-4.318119	kbhulaa	-0.08453633
-4.318119	kbilliyaan	-0.08453634
-4.318119	kbilliyo	-0.08453634
-3.626145	kbinaa	-0.1132609
-4.318119	kbistar	-0.08453633
-4.318119	kbore	-0.08453634
-4.318119	kbread	-0.08453634
-4.318119	kbritain	-0.08453634
-4.318119	kbrush	-0.08453633
-4.048557	kburaai	-0.08453632
-4.318119	kburi	-0.08453633
-4.318119	kchaai	-0.08453634
-4.162994	kchaalu	-0.08453634
-4.318119	kchetaawani	-0.08453634
-4.318119	kchhaayaa	-0.08453634
-4.318119	kchhah	-0.08453633
-4.048557	kchhod	-0.2926899
-4.318119	kchhodne	-0.08453634
-4.318119	kchhoti	-0.08453633
-4.318119	kchhune	-0.08453634
-4.318119	kchunaa	-0.08453634
-4.318119	kchuno	-0.08453634
-4.318119	kdaak	-0.08453632
-4.318119	kdafan	-0.08453632
-4.318119	kdarwaazaa	-0.08453634
-4.318119	kdauraan	-0.08453633
-4.318119	kdawaai	-0.08453633
-4.318119	kdawaaiyo	-0.08453634
-3.787899	kdekhaa	-0.1762599
-4.162994	kdekhbhaal	-0.08453634
-4.318119	kdekhnaa	-0.08453633
-4.048557	kdekhne	-0.08453634
-4.318119	kdekhte	-0.08453633
-4.318119	kdesh	-0.08453634
-4.318119	kdhokhaa	-0.08453633
-4.318119	kdhund	-0.08453634
-4.318119	kdhundne	-0.08453634
-4.318119	kdhundo	-0.08453634
-4.318119	kdhundtaa	-0.08453634
-4.318119	kdikkat	-0.08453633
-4.318119	kdin	-0.08453633
-4.318119	kdo	-0.08453633
-4.318119	kdubane	-0.08453634
-4.162994	kdur	-0.08453632
-4.318119	kdurghatanaa	-0.08453634
-4.318119	kduri	-0.08453634
-4.318119	kdyuti	-0.08453634
-1.959628	ke	-0.2696719
-4.162994	keechad	-0.08453634
-4.318119	keedo	-0.08453633
-3.898959	keemat	-0.08453633
-4.162994	keemato	-0.1946762
-4.318119	keemti	-0.08453634
-4.318119	keeps	-0.08453633
-4.318119	keerthisthambh	-0.08453633
-4.048557	kehnaa	-0.08453634
-4.162994	kehne	-0.08453633
-3.699534	kehtaa	-0.1619098
-3.508556	kehte	-0.4524542
-4.162994	kehti	-0.08453634
-4.048557	kelkar	-0.1547779
-4.318119	kendra	-0.08453634
-4.318119	kengland	-0.08453634
-3.416116	keval	-0.09613492
-4.318119	kfaad	-0.08453633
-4.318119	kfailaav	-0.08453633
-4.318119	kfull	-0.08453633
-4.318119	kfulo	-0.08453633
-4.318119	kgaanv	-0.08453634
-4.318119	kgareebi	-0.08453634
-4.318119	kgarmi	-0.08453634
-4.318119	kgawaa	-0.08453634
-4.318119	kgdh	-0.08453633
-4.318119	kgend	-0.08453633
-4.318119	kghadi	-0.08453634
-4.318119	kghanti	-0.08453634
-4.318119	kgiraftaar	-0.08453632
-4.318119	kgirte	-0.08453634
-4.318119	kgod	-0.08453634
-4.318119	kgolf	-0.08453633
-4.318119	kgussaa	-0.08453634
-3.626145	khaa	-0.08453633
-3.787899	khaad	-0.1253046
-4.318119	khaae	-0.08453634
-4.318119	khaaeà¤?gnaa	-0.08453634
-4.318119	khaakar	-0.08453633
-4.318119	khaake	-0.08453634
-4.318119	khaal	-0.08453634
-3.508556	khaali	-0.1067114
-4.162994	khaan	-0.08453634
-3.103416	khaanaa	-0.149661
-3.563383	khaane	-0.1214362
-4.318119	khaani	-0.08453634
-4.318119	khaans	-0.08453634
-4.318119	khaansi	-0.08453633
-3.563383	khaas	-0.1253046
-4.318119	khaasi	-0.08453634
-4.318119	khaasiyat	-0.08453633
-4.318119	khaaskar	-0.08453634
-4.318119	khaat	-0.08453634
-4.048557	khaataa	-0.1547779
-3.787899	khaate	-0.3274949
-4.318119	khaath	-0.08453634
-4.318119	khaati	-0.08453632
-3.626145	khaayaa	-0.1095647
-4.048557	khaaye	-0.08453633
-4.318119	khaayi	-0.08453633
-3.699534	khabar	-0.1132609
-3.787899	khadaa	-0.1253046
-4.048557	khadaau	-0.08453633
-3.626145	khade	-0.1440207
-3.626145	khadi	-0.1440207
-3.898959	khai	-0.4176287
-4.318119	khair	-0.08453633
-4.318119	khal	-0.08453634
-4.318119	kham	-0.08453634
-4.318119	khame	-0.08453634
-4.162994	khameshaa	-0.1946762
-3.416116	khane	-0.1735408
-4.162994	khar	-0.08453633
-4.318119	kharaa	-0.08453634
-3.626145	kharaab	-0.2852292
-4.318119	kharaabi	-0.08453633
-4.318119	kharachne	-0.08453634
-3.787899	kharch	-0.08453633
-4.318119	kharchanaa	-0.08453634
-4.318119	kharche	-0.08453634
-4.318119	khare	-0.08453633
-3.563383	khareed	-0.1735408
-4.318119	khareedakar	-0.08453633
-3.898959	khareedanaa	-0.08453634
-4.318119	khareeddaari	-0.08453634
-4.318119	khareede	-0.08453634
-3.416116	khareedi	-0.3275412
-4.162994	khareedne	-0.08453633
-4.318119	khareedo	-0.08453634
-4.318119	khareedte	-0.08453633
-4.318119	khargosh	-0.08453634
-4.162994	kharidaa	-0.1946762
-4.318119	kharidi	-0.08453633
-4.318119	khaskar	-0.08453633
-4.162994	khata	-0.1946762
-4.318119	khataa	-0.08453633
-4.162994	khatakhataayaa	-0.1946762
-3.193132	khatam	-0.2737852
-4.162994	khatarnaak	-0.08453633
-4.318119	khathaaye	-0.08453634
-4.318119	khatkhataanaa	-0.08453633
-4.318119	khatraa	-0.08453634
-4.318119	khatre	-0.08453634
-4.318119	khatte	-0.08453633
-3.626145	khayaal	-0.1807913
-4.318119	khazaanaa	-0.08453634
-4.318119	khed	-0.08453634
-4.318119	khedaa	-0.08453634
-4.318119	kheechaa	-0.08453634
-4.162994	kheechi	-0.1946762
-4.318119	kheechkheech	-0.08453634
-4.318119	kheej	-0.08453634
-4.162994	kheench	-0.08453634
-3.787899	khel	-0.1253046
-3.787899	khelnaa	-0.1253046
-4.048557	khelne	-0.08453634
-4.162994	khelte	-0.08453632
-3.508556	khet	-0.1689805
-4.048557	kheti	-0.2926899
-4.048557	kheto	-0.08453632
-4.318119	khi	-0.08453634
-4.162994	khichdi	-0.08453634
-3.787899	khidki	-0.08453634
-4.162994	khidkiyaa	-0.08453633
-4.318119	khifaajat	-0.08453634
-4.318119	khil	-0.08453632
-4.318119	khilaadi	-0.08453633
-4.048557	khilaaf	-0.08453633
-4.318119	khilaaiegaa	-0.08453634
-4.318119	khilaanaa	-0.08453633
-4.162994	khilaao	-0.08453634
-4.318119	khilaati	-0.08453634
-4.318119	khilaunaa	-0.08453634
-4.318119	khilaune	-0.08453633
-4.162994	khiraasat	-0.1946762
-4.318119	khisaab	-0.08453634
-4.318119	khisak	-0.08453634
-4.162994	khletaa	-0.1946762
-4.318119	khleti	-0.08453633
-4.318119	khlite	-0.08453633
-3.376361	kho	-0.1767262
-4.318119	khod	-0.08453634
-4.318119	khodaa	-0.08453634
-4.318119	khodnaa	-0.08453634
-4.162994	khoj	-0.08453633
-4.318119	khoje	-0.08453633
-4.318119	khojne	-0.08453634
-3.898959	khol	-0.08453633
-4.318119	kholie	-0.08453634
-4.048557	kholo	-0.2926899
-4.162994	kholte	-0.08453634
-4.318119	khonaa	-0.08453634
-4.318119	khoob	-0.08453633
-3.898959	khoon	-0.08453633
-4.318119	khotaa	-0.08453634
-4.318119	khoti	-0.08453633
-4.318119	khub	-0.08453634
-3.699534	khubsurat	-0.08453633
-4.318119	khuchad	-0.08453634
-3.699534	khud	-0.08453633
-4.318119	khudaa	-0.08453633
-4.162994	khudaai	-0.08453634
-4.318119	khudkushi	-0.08453634
-4.318119	khui	-0.08453632
-3.787899	khul	-0.1703002
-4.318119	khulaa	-0.08453634
-4.162994	khuli	-0.08453633
-4.318119	khulkar	-0.08453633
-4.318119	khultaa	-0.08453633
-3.306341	khush	-0.13122
-3.416116	khushi	-0.211022
-4.318119	khushkismat	-0.08453632
-4.318119	khushnaseeb	-0.08453634
-4.318119	khuskhabar	-0.08453633
-2.066313	ki	-0.1797325
-4.318119	kichchhaa	-0.08453633
-4.318119	kidaa	-0.08453633
-4.318119	kifaayat	-0.08453634
-3.563383	kijiye	-0.5827673
-4.318119	kijiyegaa	-0.08453633
-4.318119	kikatthaa	-0.08453634
-4.318119	kilaa	-0.08453633
-4.318119	kill	-0.08453634
-4.048557	kilo	-0.08453634
-4.318119	kilolitre	-0.08453634
-3.898959	kind	-0.4176286
-4.318119	kindradhanush	-0.08453634
-4.318119	kinds	-0.08453634
-4.318119	kintu	-0.08453634
-4.318119	kirdaar	-0.08453634
-4.318119	kirne	-0.08453633
-3.339941	kis	-0.09687024
-4.048557	kisaan	-0.08453634
-3.787899	kisaano	-0.2507952
-4.318119	kisam	-0.08453634
-4.048557	kise	-0.08453633
-4.162994	kishore	-0.08453633
-2.885081	kisi	-0.2389562
-4.162994	kisiko	-0.08453633
-4.318119	kisine	-0.08453633
-4.048557	kiske	-0.1547779
-4.048557	kiski	-0.08453633
-4.162994	kisko	-0.08453633
-4.318119	kisliye	-0.08453633
-4.318119	kism	-0.08453634
-3.898959	kisne	-0.08453633
-4.318119	kist	-0.08453633
-4.318119	kitaa	-0.08453634
-3.145962	kitaab	-0.1520158
-3.563383	kitaabe	-0.1321549
-4.162994	kitaabo	-0.08453633
-3.246058	kitnaa	-0.1367309
-3.275155	kitne	-0.2499406
-3.459882	kitni	-0.1880351
-4.318119	kity	-0.08453633
-2.463979	kiyaa	-0.5681513
-3.376361	kiye	-0.1361241
-4.318119	kjaane	-0.08453634
-4.318119	kjaanne	-0.08453634
-3.898959	kjaantaa	-0.1361241
-4.318119	kjaante	-0.08453634
-4.318119	kjaanwar	-0.08453633
-4.318119	kjaati	-0.08453632
-4.318119	kjaisaa	-0.08453634
-4.318119	kjalne	-0.08453633
-4.162994	kjansankhyaa	-0.08453634
-4.162994	kjeb	-0.1946762
-4.318119	kjo	-0.08453633
-4.318119	kjodnaa	-0.08453633
-4.318119	kjude	-0.08453634
-4.318119	kkaam	-0.08453633
-4.318119	kkaamakaaj	-0.08453634
-4.162994	kkaan	-0.08453632
-4.318119	kkaat	-0.08453633
-4.318119	kkaatakar	-0.08453634
-4.318119	kkaatil	-0.08453634
-4.318119	kkaato	-0.08453634
-4.318119	kkab	-0.08453634
-4.162994	kkabhi	-0.1946762
-4.318119	kkabristaan	-0.08453634
-4.162994	kkahaa	-0.08453634
-4.318119	kkahaan	-0.08453633
-4.048557	kkal	-0.08453634
-4.318119	kkalakattaa	-0.08453634
-4.318119	kkamare	-0.08453634
-4.048557	kkami	-0.08453633
-4.318119	kkampani	-0.08453634
-4.318119	kkapade	-0.08453633
-4.318119	kkarane	-0.08453634
-4.318119	kkaun	-0.08453634
-4.318119	kkeemate	-0.08453634
-4.318119	kkeidi	-0.08453634
-4.318119	kkeise	-0.08453633
-4.318119	kkhaali	-0.08453634
-4.162994	kkhaanaa	-0.08453634
-4.162994	kkhabar	-0.08453632
-4.318119	kkhambe	-0.08453634
-4.318119	kkhareedanaa	-0.08453634
-4.318119	kkhareedne	-0.08453634
-4.318119	kkhatakhataane	-0.08453633
-4.048557	kkhatam	-0.08453634
-4.162994	kkhatare	-0.08453633
-4.162994	kkhilaaf	-0.08453633
-4.318119	kkhilaanaa	-0.08453634
-4.318119	kkhilaane	-0.08453633
-4.318119	kkhol	-0.08453634
-4.048557	kkhulaa	-0.08453634
-4.318119	kkhush	-0.08453634
-4.162994	kkinaare	-0.08453634
-4.318119	kkisane	-0.08453634
-4.162994	kkisi	-0.08453634
-4.318119	kkitaabe	-0.08453633
-4.318119	kkitani	-0.08453633
-4.318119	kklaas	-0.08453633
-4.318119	kkofi	-0.08453634
-4.048557	kkoi	-0.1547779
-4.318119	kkolej	-0.08453633
-4.318119	kkone	-0.08453634
-4.318119	kkosheesh	-0.08453633
-3.699534	kkoshish	-0.1597579
-4.318119	kkuchal	-0.08453634
-4.318119	kkuchh	-0.08453634
-4.318119	kkutte	-0.08453634
-3.898959	kkyaa	-0.08453633
-4.318119	klautaanaa	-0.08453633
-4.318119	kle	-0.08453634
-2.586705	klie	-0.1670083
-4.162994	klogo	-0.08453634
-4.318119	kmaalik	-0.08453633
-4.318119	kmaanate	-0.08453633
-4.318119	kmachhaliyaan	-0.08453633
-4.318119	kmadad	-0.08453634
-4.318119	kmahak	-0.08453632
-4.318119	kmahilaaye	-0.08453634
-4.318119	kmarzi	-0.08453634
-4.318119	kmasheen	-0.08453633
-4.318119	kmaukaa	-0.08453634
-4.162994	kmausam	-0.1946762
-4.162994	kmaut	-0.08453634
-3.626145	kmei	-0.1095647
-4.318119	kmeine	-0.08453633
-4.048557	kmeri	-0.08453634
-4.318119	kmez	-0.08453634
-4.318119	kmilanaa	-0.08453634
-4.318119	kmilate	-0.08453633
-4.162994	kmujase	-0.08453633
-4.048557	kmuje	-0.08453633
-4.162994	kmukaabale	-0.08453633
-3.898959	kmutaabik	-0.08453634
-4.318119	knaam	-0.08453633
-3.563383	knahi	-0.3011987
-4.162994	knakal	-0.08453633
-4.318119	knasht	-0.08453634
-4.318119	knateeje	-0.08453633
-4.162994	knaukari	-0.08453633
-4.318119	kneeche	-0.08453634
-4.318119	kneed	-0.08453634
-4.318119	knew	-0.08453634
-4.318119	knigal	-0.08453634
-4.318119	knishaano	-0.08453634
-4.318119	kniyamo	-0.08453634
-3.898959	know	-0.1143123
-4.318119	knowing	-0.08453634
-4.162994	knowledge	-0.08453632
-4.318119	known	-0.08453634
-2.183001	ko	-0.2033301
-4.318119	kohraa	-0.08453634
-4.318119	kohraam	-0.08453634
-2.639068	koi	-0.1787264
-4.318119	kokh	-0.08453633
-4.162994	komal	-0.08453633
-4.318119	komaltaa	-0.08453634
-4.318119	kone	-0.08453634
-4.318119	koo	-0.08453633
-4.318119	kood	-0.08453634
-4.318119	koodkar	-0.08453633
-4.318119	kootne	-0.08453633
-4.318119	kop	-0.08453634
-4.162994	kor	-0.08453633
-4.048557	korea	-0.08453633
-3.626145	koshish	-0.08453633
-4.318119	kosne	-0.08453633
-4.318119	kote	-0.08453633
-4.162994	kothri	-0.08453633
-4.318119	koyal	-0.08453634
-4.162994	koyle	-0.08453633
-4.318119	kpaalatu	-0.08453633
-4.318119	kpaanch	-0.08453634
-4.318119	kpaanchawi	-0.08453633
-4.048557	kpaani	-0.08453634
-4.318119	kpaar	-0.08453633
-4.318119	kpaarit	-0.08453634
-3.626145	kpaas	-0.1132609
-4.162994	kpadhaai	-0.08453632
-4.318119	kpadhanaa	-0.08453633
-4.318119	kpados	-0.08453634
-4.318119	kpahachaan	-0.08453634
-4.318119	kpahale	-0.08453633
-4.318119	kpaksh	-0.08453634
-4.318119	kpankh	-0.08453633
-4.318119	kpar	-0.08453634
-4.318119	kparaso	-0.08453634
-4.318119	kparikramaa	-0.08453633
-4.162994	kpataa	-0.08453634
-3.787899	kpeechhe	-0.08453634
-4.318119	kpeeth	-0.08453633
-4.318119	kpeidaa	-0.08453633
-4.318119	kpeiro	-0.08453633
-4.318119	kpeiso	-0.08453633
-4.318119	kpradushan	-0.08453634
-4.318119	kprateekshaa	-0.08453634
-4.318119	kpuchh	-0.08453633
-4.318119	kpujy	-0.08453633
-4.318119	kpuraa	-0.08453634
-4.318119	kpuri	-0.08453633
-4.318119	kpustakaalay	-0.08453633
-3.787899	kraajadhaani	-0.1253046
-4.318119	kraajaneeti	-0.08453634
-4.162994	kraaste	-0.1946762
-4.318119	kraay	-0.08453633
-4.318119	krafataar	-0.08453633
-4.318119	krakshaa	-0.08453633
-4.318119	kratanaa	-0.08453633
-4.162994	krihaa	-0.1946762
-4.162994	kripalaani	-0.08453633
-4.318119	krishan	-0.08453633
-4.318119	krishna	-0.08453634
-4.318119	kritagyaa	-0.08453634
-4.048557	kriyaa	-0.08453634
-4.318119	krizalt	-0.08453633
-3.898959	krodh	-0.08453633
-4.318119	krokaa	-0.08453634
-4.318119	krokanaa	-0.08453633
-4.162994	krokane	-0.08453632
-4.318119	krone	-0.08453634
-4.318119	krote	-0.08453634
-4.318119	kroz	-0.08453633
-4.318119	krup	-0.08453634
-4.048557	ksaaf	-0.1547779
-4.162994	ksaamane	-0.08453634
-3.898959	ksaare	-0.08453634
-3.898959	ksaari	-0.08453634
-4.318119	ksaat	-0.08453633
-3.193132	ksaath	-0.116398
-4.318119	ksaathataani	-0.08453633
-4.318119	ksabase	-0.08453634
-4.318119	ksabhi	-0.08453633
-4.318119	ksachchaai	-0.08453634
-4.318119	ksafaai	-0.08453634
-4.318119	ksafal	-0.08453634
-4.318119	ksafar	-0.08453634
-4.048557	ksalaah	-0.08453634
-4.318119	ksalah	-0.08453634
-4.318119	ksamajanaa	-0.08453634
-4.318119	ksamajane	-0.08453634
-3.787899	ksamay	-0.1253046
-4.318119	ksaraasar	-0.08453633
-4.318119	ksarakaaro	-0.08453633
-4.318119	ksazaa	-0.08453634
-4.318119	kse	-0.08453633
-4.318119	kseir	-0.08453634
-4.318119	kshaadi	-0.08453634
-4.318119	kshatak	-0.08453634
-4.318119	kshaukiyaa	-0.08453633
-3.787899	kshetra	-0.276363
-4.318119	kshetro	-0.08453634
-4.162994	kshikaayat	-0.08453633
-4.318119	kshubhakaamanaae	-0.08453634
-4.318119	kshuru	-0.08453634
-4.318119	ksiwaay	-0.08453633
-4.162994	ksoch	-0.08453634
-4.318119	ksochataa	-0.08453634
-4.318119	kspaa	-0.08453633
-4.318119	ksrot	-0.08453633
-4.318119	ksudhaaranaa	-0.08453634
-4.318119	ksudhaarane	-0.08453634
-4.318119	ksudhaarie	-0.08453634
-4.318119	ksulaanaa	-0.08453633
-4.318119	ksulajaanaa	-0.08453633
-4.318119	ksungh	-0.08453634
-4.318119	ksurakshaa	-0.08453634
-4.162994	ksweekaar	-0.08453634
-4.318119	ktaage	-0.08453633
-4.318119	ktabaah	-0.08453634
-4.162994	ktahakeekaat	-0.1946762
-4.318119	ktakaleef	-0.08453633
-4.318119	ktalaash	-0.08453634
-4.162994	ktaraf	-0.08453634
-3.699534	ktarah	-0.08453634
-4.318119	ktareeke	-0.08453634
-4.162994	ktasweer	-0.08453634
-4.318119	ktaur	-0.08453634
-4.318119	kteewi	-0.08453634
-4.162994	kteirakar	-0.08453633
-4.162994	kteiyaar	-0.08453634
-4.162994	kteiyaari	-0.08453634
-4.318119	ktez	-0.08453633
-4.318119	kthi	-0.08453634
-4.318119	kthodaa	-0.08453633
-4.318119	ktikate	-0.08453634
-4.318119	kto	-0.08453634
-3.898959	ktom	-0.08453634
-4.048557	ktrapayaa	-0.08453634
-4.162994	ktren	-0.08453632
-3.787899	ktum	-0.08453634
-4.162994	ktumane	-0.08453633
-4.318119	ktumase	-0.08453634
-4.162994	ktumhaare	-0.08453633
-4.162994	ktumhe	-0.08453634
-4.318119	ktyaag	-0.08453634
-3.124168	kuch	-0.1087847
-4.318119	kuchaal	-0.08453634
-2.81714	kuchh	-0.1621593
-4.318119	kuchi	-0.08453632
-4.318119	kud	-0.08453634
-4.318119	kuddeshy	-0.08453632
-4.162994	kudo	-0.1946762
-3.787899	kul	-0.1253046
-4.318119	kulachchhani	-0.08453634
-4.318119	kulvanti	-0.08453633
-4.318119	kummeed	-0.08453633
-4.048557	kumr	-0.08453633
-4.318119	kunake	-0.08453633
-4.318119	kuname	-0.08453634
-4.318119	kunhe	-0.08453634
-4.318119	kuposhan	-0.08453634
-4.318119	kuppi	-0.08453634
-3.898959	kursi	-0.08453633
-4.318119	kursiyaa	-0.08453634
-4.318119	kus	-0.08453634
-4.318119	kusakaa	-0.08453633
-4.318119	kusake	-0.08453633
-4.162994	kusaki	-0.08453634
-4.162994	kusako	-0.08453634
-4.318119	kusane	-0.08453632
-4.318119	kusase	-0.08453634
-4.162994	kuse	-0.08453634
-4.318119	kutpaad	-0.08453633
-3.416116	kuttaa	-0.1520158
-3.459882	kutte	-0.08453633
-4.318119	kutto	-0.08453633
-4.318119	kutub	-0.08453633
-4.318119	kutuhal	-0.08453633
-4.162994	kutumb	-0.08453634
-4.318119	kwaalaa	-0.08453634
